{"learner":{"attributes":{"best_iteration":"109","best_ntree_limit":"110","scikit_learn":"{\"n_estimators\": 110, \"objective\": \"rank:pairwise\", \"max_depth\": 6, \"max_leaves\": null, \"max_bin\": null, \"grow_policy\": null, \"learning_rate\": 0.1, \"verbosity\": null, \"booster\": \"gbtree\", \"tree_method\": \"gpu_hist\", \"gamma\": null, \"min_child_weight\": null, \"max_delta_step\": null, \"subsample\": 0.75, \"sampling_method\": null, \"colsample_bytree\": 0.9, \"colsample_bylevel\": null, \"colsample_bynode\": null, \"reg_alpha\": null, \"reg_lambda\": null, \"scale_pos_weight\": null, \"base_score\": null, \"missing\": NaN, \"num_parallel_tree\": null, \"random_state\": 42, \"n_jobs\": null, \"monotone_constraints\": null, \"interaction_constraints\": null, \"importance_type\": null, \"gpu_id\": null, \"validate_parameters\": null, \"predictor\": null, \"enable_categorical\": false, \"feature_types\": null, \"max_cat_to_onehot\": null, \"max_cat_threshold\": null, \"eval_metric\": null, \"early_stopping_rounds\": null, \"callbacks\": null, \"kwargs\": {\"eta\": 0.05}, \"_estimator_type\": \"ranker\"}"},"feature_names":[],"feature_types":[],"gradient_booster":{"model":{"gbtree_model_param":{"num_parallel_tree":"1","num_trees":"110","size_leaf_vector":"0"},"tree_info":[0,0,0,0,0,0,0,0,0,0,0,0,0,0,0,0,0,0,0,0,0,0,0,0,0,0,0,0,0,0,0,0,0,0,0,0,0,0,0,0,0,0,0,0,0,0,0,0,0,0,0,0,0,0,0,0,0,0,0,0,0,0,0,0,0,0,0,0,0,0,0,0,0,0,0,0,0,0,0,0,0,0,0,0,0,0,0,0,0,0,0,0,0,0,0,0,0,0,0,0,0,0,0,0,0,0,0,0,0,0],"trees":[{"base_weights":[1.9915274E-3,-9.116726E-1,9.0832275E-1,8.331242E-1,-9.443993E-1,9.435032E-1,-8.6894923E-1,-6.64E-1,9.592114E-1,-9.582201E-1,9.079365E-1,5.0252783E-1,9.8231685E-1,-9.472669E-1,7.0921984E-3,-9.809524E-2,9.090909E-2,9.969766E-2,6.1333334E-1,-9.8558545E-1,-6.2834597E-1,9.6084826E-2,-8.947369E-2,8.5479236E-1,6.653747E-2,-4.3835616E-1,9.849354E-1,-7.886598E-1,-9.9828914E-2,3.7864077E-1,-9.5E-2,-8.82353E-2,7.925926E-1,-9.9874526E-2,-9.165532E-1,-1.0558376E-1,-8.5717463E-1,9.9390775E-1,6.4514023E-1,-6.627175E-2,9.697733E-1,-8.053097E-1,7.714286E-1,7.7711356E-1,9.9130344E-1,-4.3448275E-1,-9.918367E-2,-3.3333334E-1,6.944444E-1,8.615385E-2,-7.1428575E-2,-6.750419E-2,-9.568144E-2,5.8219176E-2,-2.2499999E-2,-7.066532E-2,-9.753283E-2,9.956446E-2,-5E-2,6.835782E-2,-9.459459E-2,3.0228759E-3,-9.921569E-2,9.797468E-2,-5E-2,-1.2E-2,-9.777778E-2,8.7878786E-2,-5E-2,9.268739E-2,4.253201E-2,9.9151276E-2,-8.0000006E-2,-7.777778E-2,2.9166667E-2,-9.1304354E-2,8.3333336E-2,8.769231E-2,-7.777778E-2],"categories":[],"categories_nodes":[],"categories_segments":[],"categories_sizes":[],"default_left":[0,0,0,0,0,0,0,0,0,0,0,0,0,0,0,0,0,0,0,0,0,0,0,0,0,0,0,0,0,0,0,0,0,0,0,0,0,0,0,0,0,0,0,0,0,0,0,0,0,0,0,0,0,0,0,0,0,0,0,0,0,0,0,0,0,0,0,0,0,0,0,0,0,0,0,0,0,0,0],"id":0,"left_children":[1,3,5,7,9,11,13,15,17,19,21,23,25,27,29,-1,-1,-1,31,33,35,-1,-1,37,39,41,43,45,-1,47,-1,-1,49,-1,51,53,55,57,59,61,63,65,67,69,71,73,-1,75,77,-1,-1,-1,-1,-1,-1,-1,-1,-1,-1,-1,-1,-1,-1,-1,-1,-1,-1,-1,-1,-1,-1,-1,-1,-1,-1,-1,-1,-1,-1],"loss_changes":[7.193469E4,2.4709688E3,2.7275195E3,1.510852E2,1.0879688E3,7.314414E2,5.811902E1,3.205396E1,8.995728E0,3.798672E2,3.0905243E1,5.31574E2,1.4664062E2,5.5046387E0,2.542995E1,0E0,0E0,0E0,2.0808014E1,3.44375E1,3.864713E2,0E0,0E0,5.5196777E1,1.8575932E2,3.302848E1,5.1148438E1,1.3529419E1,0E0,1.1810949E1,0E0,0E0,7.6281624E0,0E0,6.0063477E1,8.1030594E1,3.928186E1,3.479126E0,4.752417E1,1.2069498E2,3.399643E0,6.560631E0,2.8281384E0,6.129956E1,1.50625E1,1.8299904E1,0E0,1.1920291E1,1.035342E1,0E0,0E0,0E0,0E0,0E0,0E0,0E0,0E0,0E0,0E0,0E0,0E0,0E0,0E0,0E0,0E0,0E0,0E0,0E0,0E0,0E0,0E0,0E0,0E0,0E0,0E0,0E0,0E0,0E0,0E0],"parents":[2147483647,0,0,1,1,2,2,3,3,4,4,5,5,6,6,7,7,8,8,9,9,10,10,11,11,12,12,13,13,14,14,18,18,19,19,20,20,23,23,24,24,25,25,26,26,27,27,29,29,32,32,34,34,35,35,36,36,37,37,38,38,39,39,40,40,41,41,42,42,43,43,44,44,45,45,47,47,48,48],"right_children":[2,4,6,8,10,12,14,16,18,20,22,24,26,28,30,-1,-1,-1,32,34,36,-1,-1,38,40,42,44,46,-1,48,-1,-1,50,-1,52,54,56,58,60,62,64,66,68,70,72,74,-1,76,78,-1,-1,-1,-1,-1,-1,-1,-1,-1,-1,-1,-1,-1,-1,-1,-1,-1,-1,-1,-1,-1,-1,-1,-1,-1,-1,-1,-1,-1,-1],"split_conditions":[-3.722796E-2,2.80862E-5,1.447158E0,-1.4584775E-1,2.0148951E-1,-2.4837696E-3,3.6673266E-2,1.9256473E-3,3.0103E-1,-7.1844816E-2,3.4512236E-4,1.3453371E-4,-3.8563484E-1,1.6491696E-3,5.528038E-1,-9.809524E-2,9.090909E-2,9.969766E-2,-9.400495E-3,-1.2709716E-1,1.9199138E-4,9.6084826E-2,-8.947369E-2,3.389638E-5,1.5077096E-1,7.799867E-2,7.634702E-2,1.487817E-1,-9.9828914E-2,8.205698E-2,-9.5E-2,-8.82353E-2,5.554083E-1,-9.9874526E-2,1.3954456E-4,4.8491136E-5,3.7604128E-4,4.7712126E-1,8.332907E-1,8.369142E-1,2.8325176E-1,9.9676385E-5,1.7593187E-4,1.5386188E-4,1.0000001E0,-2.4837696E-3,-9.918367E-2,2.8475577E-1,1.951451E-1,8.615385E-2,-7.1428575E-2,-6.750419E-2,-9.568144E-2,5.8219176E-2,-2.2499999E-2,-7.066532E-2,-9.753283E-2,9.956446E-2,-5E-2,6.835782E-2,-9.459459E-2,3.0228759E-3,-9.921569E-2,9.797468E-2,-5E-2,-1.2E-2,-9.777778E-2,8.7878786E-2,-5E-2,9.268739E-2,4.253201E-2,9.9151276E-2,-8.0000006E-2,-7.777778E-2,2.9166667E-2,-9.1304354E-2,8.3333336E-2,8.769231E-2,-7.777778E-2],"split_indices":[13,0,3,13,8,13,13,8,3,13,0,0,8,0,6,0,0,0,14,13,0,0,0,0,8,13,14,1,0,12,0,0,6,0,0,0,0,3,6,6,11,0,0,0,6,13,0,1,2,0,0,0,0,0,0,0,0,0,0,0,0,0,0,0,0,0,0,0,0,0,0,0,0,0,0,0,0,0,0],"split_type":[0,0,0,0,0,0,0,0,0,0,0,0,0,0,0,0,0,0,0,0,0,0,0,0,0,0,0,0,0,0,0,0,0,0,0,0,0,0,0,0,0,0,0,0,0,0,0,0,0,0,0,0,0,0,0,0,0,0,0,0,0,0,0,0,0,0,0,0,0,0,0,0,0,0,0,0,0,0,0],"sum_hessian":[8.6867E4,4.32585E4,4.36085E4,7.96E2,4.24625E4,4.27625E4,8.46E2,6.15E1,7.345E2,4.21485E4,3.14E2,3.4605E3,3.9302E4,7.765E2,6.95E1,5.15E1,1E1,6.605E2,7.4E1,3.8918E4,3.2305E3,3.055E2,8.5E0,1.9135E3,1.547E3,7.2E1,3.923E4,1.93E2,5.835E2,5.05E1,1.9E1,7.5E0,6.65E1,3.26755E4,6.2425E3,9.84E2,2.2465E3,1.148E3,7.655E2,1.3495E3,1.975E2,5.55E1,1.65E1,1.17E3,3.806E4,7.15E1,1.215E2,1.55E1,3.5E1,6.4E1,2.5E0,8.945E2,5.348E3,1.45E2,8.39E2,9.91E2,1.2555E3,1.147E3,1E0,7.48E2,1.75E1,1.223E3,1.265E2,1.965E2,1E0,1.15E1,4.4E1,1.55E1,1E0,8.195E2,3.505E2,3.8056E4,4E0,4.85E1,2.3E1,1.05E1,5E0,3.15E1,3.5E0],"tree_param":{"num_deleted":"0","num_feature":"15","num_nodes":"79","size_leaf_vector":"0"}},{"base_weights":[7.6239236E-4,-7.5202084E-1,7.895995E-1,6.976049E-1,-8.19907E-1,8.5429466E-1,-4.4691077E-1,8.1486106E-1,-5.7999974E-1,-2.7717024E-1,-8.6654705E-1,8.7714887E-1,-7.8475904E-1,-8.0955076E-1,5.9333915E-1,-3.2022715E-1,8.550317E-1,-8.409178E-1,8.441183E-2,1.9643271E-1,-6.842739E-1,-8.747839E-1,8.158807E-1,-7.2087204E-1,8.849003E-1,-8.644695E-1,5.899972E-1,-8.5470265E-1,8.0935234E-1,-4.6518925E-1,7.789572E-1,8.626037E-2,-7.078213E-1,9.246334E-2,5.6503147E-1,7.586088E-2,-9.04659E-2,-2.141516E-1,5.7996225E-1,-8.1548077E-1,-4.2107925E-2,-8.9681524E-1,-6.9246954E-1,8.973216E-2,-8.31418E-2,8.633562E-2,-8.59735E-1,6.7680115E-1,8.9546853E-1,-5.990248E-1,-9.141168E-2,8.128037E-1,-7.308312E-2,8.358865E-2,-8.6643124E-1,8.933856E-2,-6.072793E-2,8.016844E-2,-7.7185833E-1,8.0504763E-1,-8.0881886E-2,-8.9859925E-2,7.748106E-2,-8.834519E-2,6.457376E-2,-3.4769002E-2,8.13287E-2,-8.6707644E-2,6.086048E-2,-8.449872E-2,4.978994E-2,2.2207296E-2,-9.095646E-2,-8.352314E-2,-9.081473E-2,-2.8917445E-2,-8.497965E-2,-9.1116E-2,7.612602E-2,8.066172E-2,-4.0056184E-3,3.0585835E-2,8.9733884E-2,-9.195363E-2,7.470131E-3,8.723917E-2,5.1745247E-2,-8.722647E-2,2.0366894E-2,-6.7680413E-3,-9.105803E-2,8.317118E-2,-7.9867415E-2],"categories":[],"categories_nodes":[],"categories_segments":[],"categories_sizes":[],"default_left":[0,0,0,0,0,0,0,0,0,0,0,0,0,0,0,0,0,0,0,0,0,0,0,0,0,0,0,0,0,0,0,0,0,0,0,0,0,0,0,0,0,0,0,0,0,0,0,0,0,0,0,0,0,0,0,0,0,0,0,0,0,0,0,0,0,0,0,0,0,0,0,0,0,0,0,0,0,0,0,0,0,0,0,0,0,0,0,0,0,0,0,0,0],"id":1,"left_children":[1,3,5,7,9,11,13,15,17,19,21,23,25,27,29,31,33,35,-1,37,39,41,43,45,47,49,51,53,55,57,59,-1,61,-1,63,-1,-1,65,67,69,71,73,75,-1,-1,-1,77,79,81,83,-1,85,-1,-1,87,-1,-1,-1,89,91,-1,-1,-1,-1,-1,-1,-1,-1,-1,-1,-1,-1,-1,-1,-1,-1,-1,-1,-1,-1,-1,-1,-1,-1,-1,-1,-1,-1,-1,-1,-1,-1,-1],"loss_changes":[5.1160395E4,4.338916E3,3.365795E3,2.9599286E2,1.0657734E3,1.498252E3,7.8978503E2,8.267981E1,6.2545258E1,6.429581E2,5.381211E2,4.8903906E2,6.0813538E1,1.1413025E2,1.0674466E2,2.926426E1,3.4714844E1,1.507692E1,0E0,2.4293408E2,1.5104803E2,1.5438672E2,2.616227E1,4.2734848E1,8.56875E1,6.3125E0,9.6443205E0,3.067041E1,5.6164722E0,3.2245327E1,1.9749634E1,0E0,1.4166811E1,0E0,4.03715E1,0E0,0E0,1.0255765E2,3.3581665E1,5.811853E1,7.015867E1,2.3265625E1,2.640254E2,0E0,0E0,0E0,1.5365067E1,1.7689502E2,4.0902344E1,1.84063E1,0E0,2.0025253E-2,0E0,0E0,9.543579E0,0E0,0E0,0E0,6.390362E0,2.0081573E1,0E0,0E0,0E0,0E0,0E0,0E0,0E0,0E0,0E0,0E0,0E0,0E0,0E0,0E0,0E0,0E0,0E0,0E0,0E0,0E0,0E0,0E0,0E0,0E0,0E0,0E0,0E0,0E0,0E0,0E0,0E0,0E0,0E0],"parents":[2147483647,0,0,1,1,2,2,3,3,4,4,5,5,6,6,7,7,8,8,9,9,10,10,11,11,12,12,13,13,14,14,15,15,16,16,17,17,19,19,20,20,21,21,22,22,23,23,24,24,25,25,26,26,27,27,28,28,29,29,30,30,32,32,34,34,37,37,38,38,39,39,40,40,41,41,42,42,46,46,47,47,48,48,49,49,51,51,54,54,58,58,59,59],"right_children":[2,4,6,8,10,12,14,16,18,20,22,24,26,28,30,32,34,36,-1,38,40,42,44,46,48,50,52,54,56,58,60,-1,62,-1,64,-1,-1,66,68,70,72,74,76,-1,-1,-1,78,80,82,84,-1,86,-1,-1,88,-1,-1,-1,90,92,-1,-1,-1,-1,-1,-1,-1,-1,-1,-1,-1,-1,-1,-1,-1,-1,-1,-1,-1,-1,-1,-1,-1,-1,-1,-1,-1,-1,-1,-1,-1,-1,-1],"split_conditions":[7.201356E-2,3.7991427E-5,2.7309924E-1,2.5097743E-1,1.5265875E-1,1.6720978E0,2.5183025E-1,-2.7343387E-2,1.7781726E-1,2.116023E-4,2.0148951E-1,-4.0170032E-1,2.659798E-1,8.6677474E-1,-1.0818659E-1,3.0103E-1,3.0103E-1,1.3037564E-5,8.441183E-2,2.408856E-2,4.563803E-2,1.2943986E-1,1.3222193E0,1.6043914E-5,9.3350686E-2,1.633211E-1,2.177684E-1,2.80862E-5,1.9592923E-4,6.736709E-5,3.4228098E-1,8.626037E-2,4.859829E-1,9.246334E-2,-3.2892406E-1,7.586088E-2,-9.04659E-2,5.2179027E-1,-4.575233E-1,1.0696173E-1,2.0606978E0,2.0962422E-1,2.0603396E-1,8.973216E-2,-8.31418E-2,8.633562E-2,2.305096E-1,2.2288812E-4,-3.1327718E-1,9.190395E-2,-9.141168E-2,3.411811E-1,-7.308312E-2,8.358865E-2,1.4781375E-1,8.933856E-2,-6.072793E-2,8.016844E-2,1.6448362E-1,5.0615106E-4,-8.0881886E-2,-8.9859925E-2,7.748106E-2,-8.834519E-2,6.457376E-2,-3.4769002E-2,8.13287E-2,-8.6707644E-2,6.086048E-2,-8.449872E-2,4.978994E-2,2.2207296E-2,-9.095646E-2,-8.352314E-2,-9.081473E-2,-2.8917445E-2,-8.497965E-2,-9.1116E-2,7.612602E-2,8.066172E-2,-4.0056184E-3,3.0585835E-2,8.9733884E-2,-9.195363E-2,7.470131E-3,8.723917E-2,5.1745247E-2,-8.722647E-2,2.0366894E-2,-6.7680413E-3,-9.105803E-2,8.317118E-2,-7.9867415E-2],"split_indices":[14,0,11,11,11,3,10,14,9,0,8,8,10,5,8,3,3,0,0,14,14,10,3,0,14,11,2,0,0,0,11,0,5,0,8,0,0,5,8,8,3,11,11,0,0,0,14,0,8,12,0,7,0,0,12,0,0,0,2,0,0,0,0,0,0,0,0,0,0,0,0,0,0,0,0,0,0,0,0,0,0,0,0,0,0,0,0,0,0,0,0,0,0],"split_type":[0,0,0,0,0,0,0,0,0,0,0,0,0,0,0,0,0,0,0,0,0,0,0,0,0,0,0,0,0,0,0,0,0,0,0,0,0,0,0,0,0,0,0,0,0,0,0,0,0,0,0,0,0,0,0,0,0,0,0,0,0,0,0,0,0,0,0,0,0,0,0,0,0,0,0,0,0,0,0,0,0,0,0,0,0,0,0,0,0,0,0,0,0],"sum_hessian":[8.615223E4,4.4083562E4,4.2068668E4,1.9716725E3,4.2111887E4,3.9977336E4,2.0913352E3,1.8062595E3,1.6541295E2,3.333053E3,3.8778836E4,3.942803E4,5.4930225E2,1.5509E3,5.4043524E2,6.15001E1,1.7447594E3,1.4014581E2,2.5267132E1,1.5409316E3,1.7921213E3,3.8590383E4,1.8845084E2,1.898835E2,3.923815E4,5.195492E2,2.975308E1,1.5092777E3,4.162232E1,8.04045E1,4.6003073E2,1.4876272E1,4.6623825E1,1.4052931E3,3.3946625E2,4.9530215E0,1.351928E2,7.4443005E2,7.9650165E2,1.4878541E3,3.0426712E2,3.44263E4,4.1640845E3,1.8000676E2,8.444086E0,1.4882145E1,1.7500136E2,1.899532E3,3.7338617E4,8.392112E1,4.3562808E2,2.5787664E1,3.9654174E0,9.914464E0,1.4993632E3,3.9640255E1,1.9820634E0,1.5355514E1,6.504899E1,4.530787E2,6.9520383E0,4.165746E1,4.966365E0,1.7391083E1,3.2207516E2,6.593894E2,8.504066E1,1.4891685E1,7.8161E2,1.4555112E3,3.2342896E1,2.3380624E2,7.0460884E1,5.361908E3,2.9064393E4,1.1693606E3,2.9947239E3,1.700447E2,4.9566627E0,1.6081807E3,2.9135138E2,1.1858367E2,3.722003E4,5.6620308E1,2.7300816E1,1.983263E1,5.9550343E0,1.4914178E3,7.945323E0,1.0950441E1,5.4098545E1,4.4614233E2,6.9363823E0],"tree_param":{"num_deleted":"0","num_feature":"15","num_nodes":"93","size_leaf_vector":"0"}},{"base_weights":[-4.6719885E-3,-7.740183E-1,7.6494E-1,8.542539E-2,-7.9749596E-1,7.951222E-1,-7.9311883E-1,-8.078548E-1,7.556844E-1,4.1177735E-1,8.291259E-1,-8.133419E-1,7.683465E-2,-8.322177E-1,-5.754666E-1,8.1297016E-1,-7.905982E-2,7.2864246E-1,2.481028E-2,8.318807E-1,-1.14175916E-1,-6.5320975E-1,-8.661803E-2,-1.8198666E-1,-8.33954E-1,-2.0809211E-1,-7.583269E-1,2.5904846E-1,8.2667136E-1,8.2067394E-1,4.7669932E-1,-1.24086276E-1,8.012758E-1,7.4947655E-1,8.397357E-1,-7.2359324E-1,7.270847E-1,-8.731644E-2,-3.3250585E-1,-6.969728E-2,5.0924193E-2,-8.420389E-2,-7.859688E-2,2.3488207E-2,-3.58535E-2,-7.773294E-2,1.1518138E-2,7.034282E-2,-6.934612E-2,6.42834E-2,8.504659E-2,8.561133E-2,6.842314E-2,-8.5793726E-2,5.3791434E-2,6.511634E-4,-6.994765E-2,-7.285655E-2,8.233889E-2,7.959372E-2,4.4691823E-2,8.0162376E-2,8.4103115E-2,-1.6207432E-2,-8.655632E-2,-6.0085215E-2,7.8413926E-2,-8.526055E-2,-3.6555396E-3],"categories":[],"categories_nodes":[],"categories_segments":[],"categories_sizes":[],"default_left":[0,0,0,0,0,0,0,0,0,0,0,0,0,0,0,0,0,0,0,0,0,0,0,0,0,0,0,0,0,0,0,0,0,0,0,0,0,0,0,0,0,0,0,0,0,0,0,0,0,0,0,0,0,0,0,0,0,0,0,0,0,0,0,0,0,0,0,0,0],"id":2,"left_children":[1,3,5,-1,7,9,11,13,15,17,19,21,-1,23,25,27,-1,29,31,33,35,37,-1,39,41,43,45,47,49,51,53,55,57,59,61,63,65,-1,67,-1,-1,-1,-1,-1,-1,-1,-1,-1,-1,-1,-1,-1,-1,-1,-1,-1,-1,-1,-1,-1,-1,-1,-1,-1,-1,-1,-1,-1,-1],"loss_changes":[4.951005E4,1.5992324E3,1.9663867E3,0E0,6.638418E2,5.341992E2,2.5725433E1,2.3136523E2,2.4880325E1,4.0990344E2,9.797461E1,6.077942E0,0E0,4.16875E1,2.6109338E2,1.7920532E0,0E0,4.2226257E1,1.7422519E2,2.3677734E1,5.7206852E1,1.3738564E1,0E0,3.5944794E1,1.3677734E1,8.630551E1,4.3182495E1,3.8050337E0,5.7969666E-1,5.9172363E0,4.083361E1,9.503503E1,8.80278E0,4.571936E1,1.0195312E0,5.010727E0,4.0278034E0,0E0,1.2671212E1,0E0,0E0,0E0,0E0,0E0,0E0,0E0,0E0,0E0,0E0,0E0,0E0,0E0,0E0,0E0,0E0,0E0,0E0,0E0,0E0,0E0,0E0,0E0,0E0,0E0,0E0,0E0,0E0,0E0,0E0],"parents":[2147483647,0,0,1,1,2,2,4,4,5,5,6,6,7,7,8,8,9,9,10,10,11,11,13,13,14,14,15,15,17,17,18,18,19,19,20,20,21,21,23,23,24,24,25,25,26,26,27,27,28,28,29,29,30,30,31,31,32,32,33,33,34,34,35,35,36,36,38,38],"right_children":[2,4,6,-1,8,10,12,14,16,18,20,22,-1,24,26,28,-1,30,32,34,36,38,-1,40,42,44,46,48,50,52,54,56,58,60,62,64,66,-1,68,-1,-1,-1,-1,-1,-1,-1,-1,-1,-1,-1,-1,-1,-1,-1,-1,-1,-1,-1,-1,-1,-1,-1,-1,-1,-1,-1,-1,-1,-1],"split_conditions":[-3.722796E-2,3.0103E-1,1.6720978E0,8.542539E-2,2.0148951E-1,-2.4837696E-3,1.1686606E-1,-7.957138E-2,3.4107134E-4,1.2976836E-4,9.3507314E-1,1.6491696E-3,7.683465E-2,2.80862E-5,2.0972766E-4,6.760576E-1,-7.905982E-2,5.997592E-5,1.0696173E-1,2.7632233E-2,7.447684E-1,1.9294189E0,-8.661803E-2,9.192637E-2,-1.2709716E-1,7.373147E-5,8.713296E-2,1.13520175E-1,8.323149E-1,3.389638E-5,-2.9899523E-1,6.315792E-1,5.472544E-1,2.5050488E-4,3.6673266E-2,-5.0495E-2,1.8910728E-2,-8.731644E-2,-1.2657893E-1,-6.969728E-2,5.0924193E-2,-8.420389E-2,-7.859688E-2,2.3488207E-2,-3.58535E-2,-7.773294E-2,1.1518138E-2,7.034282E-2,-6.934612E-2,6.42834E-2,8.504659E-2,8.561133E-2,6.842314E-2,-8.5793726E-2,5.3791434E-2,6.511634E-4,-6.994765E-2,-7.285655E-2,8.233889E-2,7.959372E-2,4.4691823E-2,8.0162376E-2,8.4103115E-2,-1.6207432E-2,-8.655632E-2,-6.0085215E-2,7.8413926E-2,-8.526055E-2,-3.6555396E-3],"split_indices":[13,3,3,0,8,13,13,13,0,0,6,0,0,0,0,5,0,0,8,13,5,3,0,10,13,0,8,2,5,0,8,6,5,0,13,9,13,0,8,0,0,0,0,0,0,0,0,0,0,0,0,0,0,0,0,0,0,0,0,0,0,0,0,0,0,0,0,0,0],"split_type":[0,0,0,0,0,0,0,0,0,0,0,0,0,0,0,0,0,0,0,0,0,0,0,0,0,0,0,0,0,0,0,0,0,0,0,0,0,0,0,0,0,0,0,0,0,0,0,0,0,0,0,0,0,0,0,0,0,0,0,0,0,0,0,0,0,0,0,0,0],"sum_hessian":[8.361597E4,4.1815203E4,4.180077E4,5.938509E2,4.122135E4,4.1006887E4,7.9388196E2,4.0948727E4,2.7262378E2,3.342122E3,3.7664766E4,7.842046E2,9.677408E0,3.7060797E4,3.88793E3,2.633419E2,9.281892E0,1.8370139E3,1.5051083E3,3.7555207E4,1.09558E2,1.9787764E2,5.863269E2,9.897908E1,3.6961816E4,1.292792E3,2.595138E3,6.8370457E0,2.5650482E2,1.3438617E3,4.9315222E2,1.2636318E3,2.4147635E2,3.2767246E3,3.4278484E4,6.361474E1,4.5943256E1,1.163538E2,8.152385E1,5.6715794E1,4.2263287E1,3.1617984E4,5.3438335E3,3.276059E2,9.6518604E2,2.5399924E3,5.5145668E1,4.84035E0,1.9966955E0,3.2605946E1,2.238989E2,1.062592E3,2.812696E2,2.1056387E1,4.7209586E2,1.0306835E3,2.3294838E2,2.9854982E0,2.3849086E2,2.8391208E3,4.3760397E2,1.1472229E3,3.313126E4,1.32701845E1,5.034455E1,1.4999924E0,4.4443264E1,2.8883478E1,5.264037E1],"tree_param":{"num_deleted":"0","num_feature":"15","num_nodes":"69","size_leaf_vector":"0"}},{"base_weights":[2.0091605E-4,-7.229424E-1,7.184891E-1,8.097428E-2,-7.4727315E-1,7.4619037E-1,-7.293294E-1,-7.5895745E-1,7.26734E-1,4.4543532E-1,7.80053E-1,-7.977005E-1,-4.2248882E-2,-7.805557E-1,-5.7588637E-1,7.7752715E-1,-7.470893E-2,7.2717184E-1,1.7563294E-1,-5.240273E-1,7.8115165E-1,-3.4486347E-1,-8.0975926E-1,2.4424674E-1,-8.1440754E-2,-7.8937185E-1,-7.258654E-1,-4.502361E-1,-8.049688E-2,6.6937894E-1,8.000123E-2,-7.34795E-2,7.348956E-1,1.1257804E-2,6.702744E-1,6.9683425E-2,-7.774826E-2,5.729564E-1,7.835098E-1,-7.7136576E-2,7.722881E-2,-6.447234E-1,-8.219253E-2,4.1780385E-1,-7.900693E-2,-7.896208E-2,6.697033E-2,-4.2971864E-2,-7.540581E-2,-3.675586E-2,-7.7299155E-2,7.398734E-2,-6.5900564E-2,8.137547E-2,6.1475065E-2,1.1205543E-2,-5.5336524E-2,-5.2641865E-2,7.3896274E-2,6.9642685E-2,2.4088396E-2,7.844332E-2,4.3331023E-2,-8.118291E-2,1.1087921E-2,6.978174E-2,-2.612253E-2],"categories":[],"categories_nodes":[],"categories_segments":[],"categories_sizes":[],"default_left":[0,0,0,0,0,0,0,0,0,0,0,0,0,0,0,0,0,0,0,0,0,0,0,0,0,0,0,0,0,0,0,0,0,0,0,0,0,0,0,0,0,0,0,0,0,0,0,0,0,0,0,0,0,0,0,0,0,0,0,0,0,0,0,0,0,0,0],"id":3,"left_children":[1,3,5,-1,7,9,11,13,15,17,19,21,23,25,27,29,-1,31,33,35,37,39,41,43,-1,45,47,49,-1,51,-1,-1,53,55,57,-1,-1,59,61,-1,-1,63,-1,65,-1,-1,-1,-1,-1,-1,-1,-1,-1,-1,-1,-1,-1,-1,-1,-1,-1,-1,-1,-1,-1,-1,-1],"loss_changes":[4.210606E4,1.5069805E3,1.6315879E3,0E0,6.8539844E2,4.0606055E2,3.5856323E1,1.5554492E2,2.4029953E1,3.0701343E2,5.179492E1,3.514801E0,1.5728733E1,1.6441406E1,1.19583984E2,2.0199585E-1,0E0,2.2855835E1,1.6791925E2,1.006884E1,1.7142578E1,1.0012594E1,8.274536E-1,9.659764E0,0E0,1.1560547E1,4.067798E1,7.158624E1,0E0,5.9496155E0,0E0,0E0,1.8130371E1,8.834585E1,4.273227E1,0E0,0E0,1.6440414E1,1.1115234E1,0E0,0E0,6.536215E0,0E0,8.768597E0,0E0,0E0,0E0,0E0,0E0,0E0,0E0,0E0,0E0,0E0,0E0,0E0,0E0,0E0,0E0,0E0,0E0,0E0,0E0,0E0,0E0,0E0,0E0],"parents":[2147483647,0,0,1,1,2,2,4,4,5,5,6,6,7,7,8,8,9,9,10,10,11,11,12,12,13,13,14,14,15,15,17,17,18,18,19,19,20,20,21,21,22,22,23,23,25,25,26,26,27,27,29,29,32,32,33,33,34,34,37,37,38,38,41,41,43,43],"right_children":[2,4,6,-1,8,10,12,14,16,18,20,22,24,26,28,30,-1,32,34,36,38,40,42,44,-1,46,48,50,-1,52,-1,-1,54,56,58,-1,-1,60,62,-1,-1,64,-1,66,-1,-1,-1,-1,-1,-1,-1,-1,-1,-1,-1,-1,-1,-1,-1,-1,-1,-1,-1,-1,-1,-1,-1],"split_conditions":[-3.722796E-2,3.0103E-1,1.6720978E0,8.097428E-2,2.0148951E-1,3.657931E-3,3.6673266E-2,-8.331693E-2,1.30103E0,7.781513E-1,-4.3914384E-1,1.0178242E-1,5.528038E-1,-1.2709716E-1,1.3424227E0,4.5466357E-1,-7.470893E-2,-4.8833707E-1,2.1387264E-1,3.0103E-1,6.4378016E-2,1.205468E-1,1.19749375E-1,1.0791812E0,-8.1440754E-2,1.0000001E0,7.781513E-1,6.988256E-1,-8.049688E-2,2.6075256E-1,8.000123E-2,-7.34795E-2,3.0103E-1,6.2635183E-1,-1.0927588E-2,6.9683425E-2,-7.774826E-2,1.0791812E0,8.7879753E-1,-7.7136576E-2,7.722881E-2,1.3222193E0,-8.219253E-2,1.951451E-1,-7.900693E-2,-7.896208E-2,6.697033E-2,-4.2971864E-2,-7.540581E-2,-3.675586E-2,-7.7299155E-2,7.398734E-2,-6.5900564E-2,8.137547E-2,6.1475065E-2,1.1205543E-2,-5.5336524E-2,-5.2641865E-2,7.3896274E-2,6.9642685E-2,2.4088396E-2,7.844332E-2,4.3331023E-2,-8.118291E-2,1.1087921E-2,6.978174E-2,-2.612253E-2],"split_indices":[13,3,3,0,8,13,13,13,3,3,8,11,6,13,3,9,0,8,9,3,14,10,11,4,0,5,3,6,0,11,0,0,3,6,8,0,0,3,6,0,0,4,0,2,0,0,0,0,0,0,0,0,0,0,0,0,0,0,0,0,0,0,0,0,0,0,0],"split_type":[0,0,0,0,0,0,0,0,0,0,0,0,0,0,0,0,0,0,0,0,0,0,0,0,0,0,0,0,0,0,0,0,0,0,0,0,0,0,0,0,0,0,0,0,0,0,0,0,0,0,0,0,0,0,0,0,0,0,0,0,0,0,0,0,0,0,0],"sum_hessian":[8.106077E4,4.0393867E4,4.066691E4,6.3070996E2,3.9763156E4,3.990391E4,7.63001E2,3.9450918E4,3.122382E2,4.0396296E3,3.586428E4,6.9380023E2,6.920075E1,3.5284832E4,4.1660874E3,3.0229254E2,9.945641E0,1.975281E3,2.0643486E3,2.978869E1,3.5834492E4,1.8763937E1,6.7503625E2,5.097214E1,1.8228615E1,3.037493E4,4.909902E3,2.692328E3,1.4737595E3,5.73278E1,2.4496475E2,9.886079E0,1.9653949E3,1.5502164E3,5.1413226E2,4.8203506E0,2.496834E1,4.0406622E2,3.5430426E4,1.3803578E1,4.960358E0,5.005273E1,6.249835E2,4.4158455E1,6.8136835E0,3.0370207E4,4.7217593E0,4.281963E2,4.4817056E3,2.1450002E3,5.4732764E2,5.485955E1,2.4682496E0,1.1830847E3,7.823101E2,1.3160704E3,2.3414598E2,2.7546759E1,4.865855E2,2.937482E2,1.1031802E2,3.533601E4,9.441528E1,4.092707E1,9.12566E0,3.1245838E1,1.291262E1],"tree_param":{"num_deleted":"0","num_feature":"15","num_nodes":"67","size_leaf_vector":"0"}},{"base_weights":[6.681785E-4,-6.633016E-1,6.933691E-1,5.666573E-1,-6.9799525E-1,7.125146E-1,-6.306873E-1,-6.249211E-1,7.033875E-1,-7.1117103E-1,6.666415E-1,7.1882886E-1,-3.8651317E-1,-7.281342E-1,1.6618403E-2,-7.510194E-2,6.448193E-2,7.738172E-2,3.8856286E-1,-7.362049E-1,-4.1392538E-1,7.253914E-1,-7.206652E-2,3.6714277E-1,7.3338205E-1,-6.881986E-1,7.066315E-1,-4.207349E-1,-7.8055404E-2,3.0471566E-1,-7.8803495E-2,-4.5081505E-1,5.1364964E-1,-7.473804E-1,-6.815606E-1,-2.8361585E-2,-6.364549E-1,-5.6398362E-2,7.352871E-1,6.607816E-1,-1.2148112E-1,6.252725E-1,7.432368E-1,6.2293876E-2,-7.279452E-1,3.804932E-2,7.406837E-2,8.7314405E-2,-7.789467E-2,5.4123455E-1,-3.260258E-1,-7.7057436E-2,6.959358E-2,-7.164463E-2,5.915894E-2,-6.1423898E-2,-7.479587E-2,-5.8041748E-2,-7.438752E-2,-7.144043E-2,5.1311944E-3,-5.349222E-2,-7.753085E-2,7.410773E-2,3.446566E-2,7.562923E-2,4.4307236E-2,-3.5768267E-2,1.1303641E-2,7.398454E-2,4.0447354E-2,7.049797E-2,7.457345E-2,-3.7794564E-2,-7.783126E-2,-7.505164E-2,7.2762035E-2,-5.8348853E-2,6.2827684E-2,-8.044887E-2,6.419991E-2],"categories":[],"categories_nodes":[],"categories_segments":[],"categories_sizes":[],"default_left":[0,0,0,0,0,0,0,0,0,0,0,0,0,0,0,0,0,0,0,0,0,0,0,0,0,0,0,0,0,0,0,0,0,0,0,0,0,0,0,0,0,0,0,0,0,0,0,0,0,0,0,0,0,0,0,0,0,0,0,0,0,0,0,0,0,0,0,0,0,0,0,0,0,0,0,0,0,0,0,0,0],"id":4,"left_children":[1,3,5,7,9,11,13,15,17,19,21,23,25,27,29,-1,-1,-1,31,33,35,37,-1,39,41,43,45,47,-1,49,-1,51,53,55,57,59,61,-1,63,65,67,69,71,-1,73,-1,-1,75,-1,77,79,-1,-1,-1,-1,-1,-1,-1,-1,-1,-1,-1,-1,-1,-1,-1,-1,-1,-1,-1,-1,-1,-1,-1,-1,-1,-1,-1,-1,-1,-1],"loss_changes":[3.573733E4,1.6933301E3,9.6444727E2,1.7785263E2,6.942461E2,2.6041602E2,3.4236023E1,1.8515923E1,2.1369171E1,2.8407422E2,3.0638672E1,1.9049805E2,7.132118E1,7.2707977E0,1.6923979E1,0E0,0E0,0E0,1.9201403E1,2.1015625E1,2.5488205E2,4.944046E0,0E0,2.1287349E2,3.7666016E1,9.252289E0,2.395916E-1,1.2966164E1,0E0,8.189978E0,0E0,9.323911E0,1.5543896E1,1.7939453E0,3.7358887E1,5.9518795E1,2.6141357E1,0E0,5.424042E-1,1.893097E1,3.092538E1,7.5497925E1,2.609375E0,0E0,2.6028214E0,0E0,0E0,1.6750801E1,0E0,4.227973E0,7.590645E0,0E0,0E0,0E0,0E0,0E0,0E0,0E0,0E0,0E0,0E0,0E0,0E0,0E0,0E0,0E0,0E0,0E0,0E0,0E0,0E0,0E0,0E0,0E0,0E0,0E0,0E0,0E0,0E0,0E0,0E0],"parents":[2147483647,0,0,1,1,2,2,3,3,4,4,5,5,6,6,7,7,8,8,9,9,10,10,11,11,12,12,13,13,14,14,18,18,19,19,20,20,21,21,23,23,24,24,25,25,26,26,27,27,29,29,31,31,32,32,33,33,34,34,35,35,36,36,38,38,39,39,40,40,41,41,42,42,44,44,47,47,49,49,50,50],"right_children":[2,4,6,8,10,12,14,16,18,20,22,24,26,28,30,-1,-1,-1,32,34,36,38,-1,40,42,44,46,48,-1,50,-1,52,54,56,58,60,62,-1,64,66,68,70,72,-1,74,-1,-1,76,-1,78,80,-1,-1,-1,-1,-1,-1,-1,-1,-1,-1,-1,-1,-1,-1,-1,-1,-1,-1,-1,-1,-1,-1,-1,-1,-1,-1,-1,-1,-1,-1],"split_conditions":[-2.8065033E-2,3.389638E-5,1.6720978E0,-1.4584775E-1,1.7566922E-1,9.3507314E-1,3.6673266E-2,5.6271017E-1,3.0103E-1,-6.356251E-2,3.8115328E-4,5.589081E-2,-1.885308E-1,1.2780533E-3,5.528038E-1,-7.510194E-2,6.448193E-2,7.738172E-2,-1.2207532E-2,-1.2269939E-1,2.116023E-4,5.8848685E-1,-7.206652E-2,1.3719327E-4,1.8910728E-2,2.1558328E-5,4.4788092E-1,5.0627075E-2,-7.8055404E-2,1.951451E-1,-7.8803495E-2,5.6271017E-1,-3.7254763E-1,4.183295E-5,2.560867E-4,-3.164705E-1,1.0297404E-3,-5.6398362E-2,3.4512236E-4,5.997592E-5,4.013276E-2,1.4484132E-4,3.6673266E-2,6.2293876E-2,9.9676385E-5,3.804932E-2,7.406837E-2,-7.7130115E-3,-7.789467E-2,1.4367852E-1,2.7793485E-1,-7.7057436E-2,6.959358E-2,-7.164463E-2,5.915894E-2,-6.1423898E-2,-7.479587E-2,-5.8041748E-2,-7.438752E-2,-7.144043E-2,5.1311944E-3,-5.349222E-2,-7.753085E-2,7.410773E-2,3.446566E-2,7.562923E-2,4.4307236E-2,-3.5768267E-2,1.1303641E-2,7.398454E-2,4.0447354E-2,7.049797E-2,7.457345E-2,-3.7794564E-2,-7.783126E-2,-7.505164E-2,7.2762035E-2,-5.8348853E-2,6.2827684E-2,-8.044887E-2,6.419991E-2],"split_indices":[13,0,3,13,8,6,13,5,3,13,0,14,8,0,6,0,0,0,14,13,0,5,0,0,13,0,7,14,0,2,0,5,8,0,0,8,0,0,0,0,14,0,13,0,0,0,0,13,0,1,1,0,0,0,0,0,0,0,0,0,0,0,0,0,0,0,0,0,0,0,0,0,0,0,0,0,0,0,0,0,0],"split_type":[0,0,0,0,0,0,0,0,0,0,0,0,0,0,0,0,0,0,0,0,0,0,0,0,0,0,0,0,0,0,0,0,0,0,0,0,0,0,0,0,0,0,0,0,0,0,0,0,0,0,0,0,0,0,0,0,0,0,0,0,0,0,0,0,0,0,0,0,0,0,0,0,0,0,0,0,0,0,0,0,0],"sum_hessian":[7.769926E4,3.96724E4,3.8026863E4,1.0879268E3,3.858447E4,3.7485297E4,5.415654E2,1.11618835E2,9.763079E2,3.821597E4,3.685013E2,3.7271508E4,2.1379056E2,4.7059598E2,7.096949E1,1.01906944E2,9.711889E0,7.966343E2,1.7967365E2,3.5246082E4,2.9698865E3,3.539877E2,1.4513616E1,1.4820972E3,3.578941E4,1.6784048E2,4.595008E1,6.987314E1,4.0072284E2,5.2716305E1,1.8253183E1,2.2965143E1,1.567085E2,2.925115E4,5.994932E3,1.0872316E3,1.882655E3,2.2696204E0,3.5171808E2,9.255406E2,5.565566E2,2.995224E3,3.2794188E4,4.5066023E0,1.6333388E2,5.4950023E0,4.045508E1,2.9206297E1,4.0666843E1,3.844274E1,1.4273563E1,1.8214312E1,4.7508307E0,8.849391E0,1.478591E2,1.3110391E2,2.9120047E4,2.289365E3,3.705567E3,1.12298584E2,9.74933E2,1.0902753E3,7.9237976E2,3.4569672E2,6.0213585E0,6.4159467E2,2.8394592E2,2.7702112E2,2.795355E2,1.9704198E3,1.0248043E3,2.0272041E3,3.0766982E4,2.1617702E1,1.4171617E2,1.2577155E1,1.6629143E1,2.3516893E0,3.6091053E1,9.665275E0,4.6082892E0],"tree_param":{"num_deleted":"0","num_feature":"15","num_nodes":"81","size_leaf_vector":"0"}},{"base_weights":[1.1632525E-3,-5.891392E-1,6.063999E-1,6.1973405E-1,-6.409227E-1,6.705388E-1,-2.6457456E-1,6.919432E-1,-4.4252333E-1,-6.5469897E-1,5.326227E-1,6.861868E-1,-6.395136E-1,-6.3246065E-1,4.167339E-1,-6.9638275E-2,7.104062E-1,-7.1328044E-2,7.3409736E-2,-3.568803E-1,-6.9368553E-1,6.507516E-1,-7.2895356E-2,6.9424367E-1,-2.9713446E-1,-7.017538E-1,4.6573073E-1,4.1961607E-1,-6.7515695E-1,-5.1871216E-1,5.951697E-1,7.190978E-1,-6.7358926E-2,1.6559802E-2,-5.747678E-1,-7.009821E-1,-4.084746E-1,1.7236602E-2,7.0410407E-1,5.4254967E-1,7.0345813E-1,-6.603976E-1,6.6366225E-1,-4.642508E-1,-7.309906E-2,6.7173E-2,-5.8767207E-2,-6.69044E-2,6.5139097E-1,-6.904434E-1,6.822861E-2,5.606212E-1,-6.8844116E-1,6.2357986E-1,-6.893178E-2,7.532391E-2,5.4602355E-2,-2.9775947E-2,3.875013E-2,-6.668164E-2,-1.7862806E-2,-4.158267E-2,-7.043565E-2,2.5880942E-2,-5.614478E-2,-7.2129756E-2,3.6994215E-2,3.7282396E-2,7.144242E-2,6.2155496E-2,-3.336877E-2,7.081031E-2,6.3508384E-2,1.2662564E-3,-7.366684E-2,7.021882E-2,-5.5421717E-2,-7.858892E-2,6.4198755E-2,-5.304284E-2,7.221953E-2,-4.6623882E-2,-7.0087664E-2,-4.75446E-2,6.881517E-2,-7.395185E-2,3.3135597E-2,6.383659E-2,-6.521748E-2],"categories":[],"categories_nodes":[],"categories_segments":[],"categories_sizes":[],"default_left":[0,0,0,0,0,0,0,0,0,0,0,0,0,0,0,0,0,0,0,0,0,0,0,0,0,0,0,0,0,0,0,0,0,0,0,0,0,0,0,0,0,0,0,0,0,0,0,0,0,0,0,0,0,0,0,0,0,0,0,0,0,0,0,0,0,0,0,0,0,0,0,0,0,0,0,0,0,0,0,0,0,0,0,0,0,0,0,0,0],"id":5,"left_children":[1,3,5,7,9,11,13,15,17,19,21,23,25,27,29,-1,31,-1,-1,33,35,37,-1,39,41,43,45,47,49,51,53,55,-1,57,59,61,63,65,67,69,71,73,75,77,-1,-1,-1,-1,79,81,-1,83,85,87,-1,-1,-1,-1,-1,-1,-1,-1,-1,-1,-1,-1,-1,-1,-1,-1,-1,-1,-1,-1,-1,-1,-1,-1,-1,-1,-1,-1,-1,-1,-1,-1,-1,-1,-1],"loss_changes":[2.6483287E4,2.3495225E3,2.0447832E3,1.1858142E2,5.821211E2,6.9927637E2,6.2965515E2,3.7513306E1,3.1985113E1,4.1273145E2,6.278019E1,2.670996E2,2.80428E1,7.3548096E1,1.4737709E2,0E0,1.7634705E1,0E0,0E0,3.351808E2,6.5163086E1,1.2926773E1,0E0,4.6325195E1,9.623857E1,2.3119354E0,5.186207E0,1.6641687E1,3.300348E1,2.634053E1,2.7449127E1,7.963745E0,0E0,1.7719646E2,9.473944E1,2.921289E1,8.0470245E1,8.279383E0,9.4065857E-1,1.3297656E2,9.553711E0,1.025975E1,3.9459E0,1.6370499E1,0E0,0E0,0E0,0E0,4.856453E0,3.3008423E0,0E0,2.943766E0,6.6454163E0,1.4090515E1,0E0,0E0,0E0,0E0,0E0,0E0,0E0,0E0,0E0,0E0,0E0,0E0,0E0,0E0,0E0,0E0,0E0,0E0,0E0,0E0,0E0,0E0,0E0,0E0,0E0,0E0,0E0,0E0,0E0,0E0,0E0,0E0,0E0,0E0,0E0],"parents":[2147483647,0,0,1,1,2,2,3,3,4,4,5,5,6,6,7,7,8,8,9,9,10,10,11,11,12,12,13,13,14,14,16,16,19,19,20,20,21,21,23,23,24,24,25,25,26,26,27,27,28,28,29,29,30,30,31,31,33,33,34,34,35,35,36,36,37,37,38,38,39,39,40,40,41,41,42,42,43,43,48,48,49,49,51,51,52,52,53,53],"right_children":[2,4,6,8,10,12,14,16,18,20,22,24,26,28,30,-1,32,-1,-1,34,36,38,-1,40,42,44,46,48,50,52,54,56,-1,58,60,62,64,66,68,70,72,74,76,78,-1,-1,-1,-1,80,82,-1,84,86,88,-1,-1,-1,-1,-1,-1,-1,-1,-1,-1,-1,-1,-1,-1,-1,-1,-1,-1,-1,-1,-1,-1,-1,-1,-1,-1,-1,-1,-1,-1,-1,-1,-1,-1,-1],"split_conditions":[6.995185E-2,3.389638E-5,2.6075256E-1,2.500254E-1,1.2729639E-1,1.6720978E0,2.3108989E-1,-4.4542965E-2,5.6271017E-1,1.678744E-1,6.223999E-4,8.571007E-1,2.659798E-1,6.736709E-5,-1.2916228E-1,-6.9638275E-2,8.173452E-1,-7.1328044E-2,7.3409736E-2,1.9592923E-4,1.6134208E-1,6.0102063E-1,-7.2895356E-2,1.7351569E-1,7.447684E-1,1.4575185E-1,3.411811E-1,-1.4968455E-1,9.9999994E-1,6.736709E-5,5.0615106E-4,3.0103E-1,-6.7358926E-2,2.408856E-2,4.013276E-2,4.8491136E-5,1.9166848E-1,4.0852895E-1,6.403364E-1,2.0342484E-1,2.2425024E-1,9.9676385E-5,1.878727E-4,9.793217E-2,-7.309906E-2,6.7173E-2,-5.8767207E-2,-6.69044E-2,3.389041E-1,1.22594E-1,6.822861E-2,2.4486272E-1,2.4759205E-1,3.4228098E-1,-6.893178E-2,7.532391E-2,5.4602355E-2,-2.9775947E-2,3.875013E-2,-6.668164E-2,-1.7862806E-2,-4.158267E-2,-7.043565E-2,2.5880942E-2,-5.614478E-2,-7.2129756E-2,3.6994215E-2,3.7282396E-2,7.144242E-2,6.2155496E-2,-3.336877E-2,7.081031E-2,6.3508384E-2,1.2662564E-3,-7.366684E-2,7.021882E-2,-5.5421717E-2,-7.858892E-2,6.4198755E-2,-5.304284E-2,7.221953E-2,-4.6623882E-2,-7.0087664E-2,-4.75446E-2,6.881517E-2,-7.395185E-2,3.3135597E-2,6.383659E-2,-6.521748E-2],"split_indices":[14,0,11,11,8,3,10,14,5,11,0,6,10,0,8,0,6,0,0,0,10,5,0,10,5,11,7,8,5,0,0,3,0,14,14,0,11,6,5,11,11,0,0,12,0,0,0,0,5,2,0,2,14,11,0,0,0,0,0,0,0,0,0,0,0,0,0,0,0,0,0,0,0,0,0,0,0,0,0,0,0,0,0,0,0,0,0,0,0],"split_type":[0,0,0,0,0,0,0,0,0,0,0,0,0,0,0,0,0,0,0,0,0,0,0,0,0,0,0,0,0,0,0,0,0,0,0,0,0,0,0,0,0,0,0,0,0,0,0,0,0,0,0,0,0,0,0,0,0,0,0,0,0,0,0,0,0,0,0,0,0,0,0,0,0,0,0,0,0,0,0,0,0,0,0,0,0,0,0,0,0],"sum_hessian":[7.412426E4,3.752511E4,3.659915E4,1.5409548E3,3.5984152E4,3.408905E4,2.5100986E3,1.4431989E3,9.77559E1,3.5567074E4,4.170797E2,3.368715E4,4.019033E2,1.6300126E3,8.800861E2,1.845894E1,1.42474E3,7.9789085E1,1.7966812E1,4.118206E3,3.1448867E4,3.818125E2,3.5267193E1,3.3413664E4,2.734821E2,3.8082288E2,2.1080399E1,6.322644E1,1.5667861E3,1.4067796E2,7.3940814E2,1.4163258E3,8.414203E0,1.517783E3,2.6004233E3,3.0662959E4,7.8590845E2,2.9760088E1,3.5205243E2,1.9168702E3,3.1496795E4,1.9867764E2,7.4804436E1,4.3591297E1,3.372316E2,1.7935356E1,3.1450436E0,1.0766931E1,5.2459507E1,1.5498246E3,1.6961557E1,1.8803091E1,1.2187487E2,7.239113E2,1.5496855E1,1.180169E3,2.3615677E2,8.217045E2,6.960785E2,2.1095554E3,4.9086774E2,3.6006067E2,3.0302898E4,1.4643834E2,6.394701E2,9.281147E0,2.047894E1,1.1757446E1,3.4029498E2,1.7585983E3,1.5827203E2,2.9484436E4,2.012359E3,2.0307335E1,1.7837032E2,7.292112E1,1.8833208E0,3.3996433E1,9.594864E0,2.5983348E0,4.986117E1,7.094489E1,1.4788798E3,1.7618227E0,1.704127E1,1.16323555E2,5.5513153E0,7.161112E2,7.8001018E0],"tree_param":{"num_deleted":"0","num_feature":"15","num_nodes":"89","size_leaf_vector":"0"}},{"base_weights":[-3.4289346E-3,-6.2426734E-1,6.1566716E-1,7.185957E-2,-6.4611226E-1,6.38986E-1,-6.3613915E-1,-6.544918E-1,6.1982816E-1,3.421935E-1,6.7409533E-1,-6.6226697E-1,6.475402E-2,-6.771432E-1,-4.583029E-1,6.66821E-1,-6.4663105E-2,6.1917585E-1,4.278682E-2,-3.3173355E-1,6.7572474E-1,-6.856901E-1,-3.3265567E-1,-2.3189224E-1,-6.798183E-1,8.7890044E-2,-5.476499E-1,-5.529767E-2,6.7775863E-1,6.930764E-1,3.7706986E-1,-1.1253667E-1,5.676981E-1,6.2790796E-2,-6.92278E-2,6.123033E-1,6.8343717E-1,-7.1082586E-1,-4.8272902E-1,-7.953675E-2,2.2890753E-1,-7.002354E-2,2.0859588E-2,-6.806161E-2,-3.7142236E-2,-7.335544E-2,1.8111756E-2,-4.0443115E-2,-6.596309E-2,5.60957E-2,6.94995E-2,-5.231275E-2,6.953265E-2,2.1087084E-2,7.024533E-2,-1.1705158E-3,-5.327617E-2,-4.9792122E-2,6.494456E-2,6.8091564E-2,4.588818E-2,6.835081E-2,-4.337074E-2,-5.881685E-2,-7.263014E-2,3.1499E-2,-7.074474E-2,5.112154E-2,-6.5323964E-2],"categories":[],"categories_nodes":[],"categories_segments":[],"categories_sizes":[],"default_left":[0,0,0,0,0,0,0,0,0,0,0,0,0,0,0,0,0,0,0,0,0,0,0,0,0,0,0,0,0,0,0,0,0,0,0,0,0,0,0,0,0,0,0,0,0,0,0,0,0,0,0,0,0,0,0,0,0,0,0,0,0,0,0,0,0,0,0,0,0],"id":6,"left_children":[1,3,5,-1,7,9,11,13,15,17,19,21,-1,23,25,27,-1,29,31,33,35,37,39,41,43,45,47,-1,49,51,53,55,57,-1,-1,59,61,63,65,-1,67,-1,-1,-1,-1,-1,-1,-1,-1,-1,-1,-1,-1,-1,-1,-1,-1,-1,-1,-1,-1,-1,-1,-1,-1,-1,-1,-1,-1],"loss_changes":[2.6782377E4,1.0210615E3,1.01884766E3,0E0,3.635703E2,3.566797E2,2.1845245E1,1.5083105E2,1.3859581E1,3.0061755E2,5.04209E1,4.607239E0,0E0,3.615625E1,1.7199237E2,3.283966E0,0E0,3.3430176E1,1.4218747E2,1.78057E1,1.45390625E1,2.6351624E0,1.1484089E1,3.8021973E1,7.205078E0,3.8132187E1,4.829883E1,0E0,4.612732E-2,4.3084717E0,2.3785076E1,5.7025642E1,3.5011307E1,0E0,0E0,3.468811E1,2.4541016E0,5.548096E-1,1.2314028E1,0E0,5.420664E0,0E0,0E0,0E0,0E0,0E0,0E0,0E0,0E0,0E0,0E0,0E0,0E0,0E0,0E0,0E0,0E0,0E0,0E0,0E0,0E0,0E0,0E0,0E0,0E0,0E0,0E0,0E0,0E0],"parents":[2147483647,0,0,1,1,2,2,4,4,5,5,6,6,7,7,8,8,9,9,10,10,11,11,13,13,14,14,15,15,17,17,18,18,19,19,20,20,21,21,22,22,23,23,24,24,25,25,26,26,28,28,29,29,30,30,31,31,32,32,35,35,36,36,37,37,38,38,40,40],"right_children":[2,4,6,-1,8,10,12,14,16,18,20,22,-1,24,26,28,-1,30,32,34,36,38,40,42,44,46,48,-1,50,52,54,56,58,-1,-1,60,62,64,66,-1,68,-1,-1,-1,-1,-1,-1,-1,-1,-1,-1,-1,-1,-1,-1,-1,-1,-1,-1,-1,-1,-1,-1,-1,-1,-1,-1,-1,-1],"split_conditions":[-3.722796E-2,3.0103E-1,1.5910646E0,7.185957E-2,2.0148951E-1,3.657931E-3,1.1686606E-1,-7.957138E-2,3.4512236E-4,1.19675526E-4,-4.0170032E-1,3.6673266E-2,6.475402E-2,3.389638E-5,1.0359602E-4,6.760576E-1,-6.4663105E-2,5.997592E-5,2.1387264E-1,7.491106E-1,3.6673266E-2,1.3617278E0,9.762797E-2,-1.2669421E-2,3.2408202E-1,-3.164705E-1,2.9176392E-4,-5.529767E-2,8.323149E-1,-5.5491626E-1,2.3984551E-2,6.0820615E-1,-1.6543925E-2,6.2790796E-2,-6.92278E-2,1.561327E-4,1.0000001E0,1.2445311E-1,1.19749375E-1,-7.953675E-2,4.3445885E-2,-7.002354E-2,2.0859588E-2,-6.806161E-2,-3.7142236E-2,-7.335544E-2,1.8111756E-2,-4.0443115E-2,-6.596309E-2,5.60957E-2,6.94995E-2,-5.231275E-2,6.953265E-2,2.1087084E-2,7.024533E-2,-1.1705158E-3,-5.327617E-2,-4.9792122E-2,6.494456E-2,6.8091564E-2,4.588818E-2,6.835081E-2,-4.337074E-2,-5.881685E-2,-7.263014E-2,3.1499E-2,-7.074474E-2,5.112154E-2,-6.5323964E-2],"split_indices":[13,3,3,0,8,13,13,13,0,0,8,13,0,0,0,5,0,0,9,6,13,4,12,14,9,8,0,0,5,8,8,6,8,0,0,0,6,2,11,0,9,0,0,0,0,0,0,0,0,0,0,0,0,0,0,0,0,0,0,0,0,0,0,0,0,0,0,0,0],"split_type":[0,0,0,0,0,0,0,0,0,0,0,0,0,0,0,0,0,0,0,0,0,0,0,0,0,0,0,0,0,0,0,0,0,0,0,0,0,0,0,0,0,0,0,0,0,0,0,0,0,0,0,0,0,0,0,0,0,0,0,0,0,0,0,0,0,0,0,0,0],"sum_hessian":[6.9678695E4,3.4790387E4,3.4888305E4,5.563803E2,3.4234008E4,3.4250766E4,6.375385E2,3.4009375E4,2.2463202E2,3.6242588E3,3.0626506E4,6.252954E2,1.2243065E1,3.0486979E4,3.5223967E3,2.1705164E2,7.58038E0,1.8820754E3,1.7421833E3,4.9206203E1,3.05773E4,5.827997E2,4.2495766E1,1.8259663E2,3.0304383E4,4.9519644E2,3.0272002E3,1.4885371E0,2.1556311E2,1.4405106E3,4.4156476E2,1.3449828E3,3.9720053E2,1.3235756E1,3.5970448E1,3.323951E3,2.725335E4,5.163499E2,6.644978E1,2.3070223E1,1.942554E1,8.821429E1,9.438235E1,3.0224982E4,7.939916E1,4.977261E1,4.4542386E2,1.3303508E3,1.6968494E3,3.203352E1,1.8352959E2,2.232651E0,1.438278E3,2.933671E2,1.4819768E2,1.0855393E3,2.5944348E2,2.7936983E1,3.6926355E2,2.2944163E3,1.0295348E3,2.725201E4,1.3398272E0,6.2218487E1,4.541314E2,1.4516502E1,5.1933285E1,1.5034602E1,4.3909397E0],"tree_param":{"num_deleted":"0","num_feature":"15","num_nodes":"69","size_leaf_vector":"0"}},{"base_weights":[-2.6993484E-3,-5.959665E-1,5.985147E-1,6.982633E-2,-6.1844426E-1,6.199987E-1,-6.171342E-1,-6.2780786E-1,6.027596E-1,3.518119E-1,6.503817E-1,-6.345351E-1,5.9140693E-2,-6.48363E-1,-3.6044824E-1,6.4622885E-1,-6.2500395E-2,5.963135E-1,5.9907656E-2,6.5271443E-1,3.0690185E-3,-4.5187184E-1,-7.0734344E-2,-4.062819E-1,-6.525028E-1,-3.727512E-2,-5.547275E-1,4.8655182E-1,6.699115E-2,6.726917E-1,3.7019905E-1,-5.7305865E-2,6.2494826E-1,5.8320296E-1,6.5844154E-1,-5.8857286E-1,6.126943E-1,-1.1405292E-1,-6.05079E-1,-6.3734375E-2,-2.9108187E-3,-6.625922E-2,-6.042139E-2,-6.073689E-2,2.807809E-3,-4.405889E-2,-6.8209305E-2,6.343327E-2,-6.752561E-2,7.0142224E-2,5.67805E-2,2.0908684E-2,6.3348584E-2,1.4783061E-2,-3.3447992E-2,-8.065303E-3,6.517471E-2,6.371318E-2,3.557129E-2,6.2392958E-2,6.596618E-2,-7.1523115E-2,3.4897853E-2,1.80001E-2,6.5756164E-2,-6.586364E-2,1.6500767E-2,-6.53388E-2,2.6581634E-2],"categories":[],"categories_nodes":[],"categories_segments":[],"categories_sizes":[],"default_left":[0,0,0,0,0,0,0,0,0,0,0,0,0,0,0,0,0,0,0,0,0,0,0,0,0,0,0,0,0,0,0,0,0,0,0,0,0,0,0,0,0,0,0,0,0,0,0,0,0,0,0,0,0,0,0,0,0,0,0,0,0,0,0,0,0,0,0,0,0],"id":7,"left_children":[1,3,5,-1,7,9,11,13,15,17,19,21,-1,23,25,27,-1,29,31,33,35,37,-1,39,41,43,45,47,-1,49,51,53,55,57,59,61,63,65,67,-1,-1,-1,-1,-1,-1,-1,-1,-1,-1,-1,-1,-1,-1,-1,-1,-1,-1,-1,-1,-1,-1,-1,-1,-1,-1,-1,-1,-1,-1],"loss_changes":[2.3424854E4,9.6206836E2,8.5229004E2,0E0,3.7191992E2,2.6094922E2,1.2298187E1,1.7697266E2,1.3626152E1,2.3291467E2,4.3472656E1,7.11998E0,0E0,2.9742188E1,1.44659E2,5.8075714E-1,0E0,3.0424072E1,9.864364E1,1.1036133E1,3.8010246E1,8.325542E0,0E0,4.4086166E1,1.3942383E1,3.2291073E1,2.0620056E1,6.37265E0,0E0,3.598755E0,1.898462E1,7.021201E1,4.890976E0,2.6669739E1,7.03125E-1,6.600748E0,8.8923645E-1,7.986762E0,4.8586082E0,0E0,0E0,0E0,0E0,0E0,0E0,0E0,0E0,0E0,0E0,0E0,0E0,0E0,0E0,0E0,0E0,0E0,0E0,0E0,0E0,0E0,0E0,0E0,0E0,0E0,0E0,0E0,0E0,0E0,0E0],"parents":[2147483647,0,0,1,1,2,2,4,4,5,5,6,6,7,7,8,8,9,9,10,10,11,11,13,13,14,14,15,15,17,17,18,18,19,19,20,20,21,21,23,23,24,24,25,25,26,26,27,27,29,29,30,30,31,31,32,32,33,33,34,34,35,35,36,36,37,37,38,38],"right_children":[2,4,6,-1,8,10,12,14,16,18,20,22,-1,24,26,28,-1,30,32,34,36,38,-1,40,42,44,46,48,-1,50,52,54,56,58,60,62,64,66,68,-1,-1,-1,-1,-1,-1,-1,-1,-1,-1,-1,-1,-1,-1,-1,-1,-1,-1,-1,-1,-1,-1,-1,-1,-1,-1,-1,-1,-1,-1],"split_conditions":[-3.4228183E-2,3.0103E-1,1.5910646E0,6.982633E-2,2.0148951E-1,3.657931E-3,1.1686606E-1,-6.356251E-2,1.3222193E0,1.2742644E-4,8.571007E-1,1.6491696E-3,5.9140693E-2,4.8491136E-5,2.0972766E-4,2.5513053E-1,-6.2500395E-2,5.997592E-5,7.044959E-2,2.7632233E-2,-1.885308E-1,1.3785724E-1,-7.0734344E-2,-1.3737847E-1,-1.2269939E-1,-3.164705E-1,1.3424227E0,2.0972766E-4,6.699115E-2,3.389638E-5,1.5394047E-1,2.5050488E-4,3.9649412E-1,2.2660749E-4,3.6673266E-2,2.7161986E-1,4.4788092E-1,-1.2916228E-1,6.751896E-2,-6.3734375E-2,-2.9108187E-3,-6.625922E-2,-6.042139E-2,-6.073689E-2,2.807809E-3,-4.405889E-2,-6.8209305E-2,6.343327E-2,-6.752561E-2,7.0142224E-2,5.67805E-2,2.0908684E-2,6.3348584E-2,1.4783061E-2,-3.3447992E-2,-8.065303E-3,6.517471E-2,6.371318E-2,3.557129E-2,6.2392958E-2,6.596618E-2,-7.1523115E-2,3.4897853E-2,1.80001E-2,6.5756164E-2,-6.586364E-2,1.6500767E-2,-6.53388E-2,2.6581634E-2],"split_indices":[13,3,3,0,8,13,13,13,3,0,6,0,0,0,0,8,0,0,8,13,8,2,0,13,13,8,3,0,0,0,9,0,6,0,13,2,7,8,13,0,0,0,0,0,0,0,0,0,0,0,0,0,0,0,0,0,0,0,0,0,0,0,0,0,0,0,0,0,0],"split_type":[0,0,0,0,0,0,0,0,0,0,0,0,0,0,0,0,0,0,0,0,0,0,0,0,0,0,0,0,0,0,0,0,0,0,0,0,0,0,0,0,0,0,0,0,0,0,0,0,0,0,0,0,0,0,0,0,0,0,0,0,0,0,0,0,0,0,0,0,0],"sum_hessian":[6.56726E4,3.3054766E4,3.261784E4,5.6377026E2,3.2490994E4,3.205188E4,5.659593E2,3.2244248E4,2.4674724E2,3.2629338E3,2.8788945E4,5.5839435E2,7.5649204E0,2.994091E4,2.3033367E3,2.3876729E2,7.9799585E0,1.7750735E3,1.4878604E3,2.868556E4,1.0338517E2,1.6119394E2,3.972004E2,5.050756E2,2.9435836E4,8.6524304E2,1.4380935E3,3.3621777E1,2.0514551E2,1.3253981E3,4.4967532E2,1.2329852E3,2.5487514E2,2.1913567E3,2.6494205E4,5.2483967E1,5.0901203E1,5.083911E1,1.10354836E2,3.127753E2,1.923003E2,2.4337982E4,5.0978525E3,8.8133865E1,7.771092E2,7.607797E2,6.7731384E2,3.02305E1,3.3912768E0,1.0359448E3,2.8945328E2,2.8008066E2,1.6959468E2,7.088397E2,5.241455E2,9.252438E0,2.456227E2,1.7699675E3,4.2138907E2,9.222356E2,2.5571969E4,4.6446426E1,6.0375385E0,5.253092E0,4.564811E1,1.6764057E1,3.407505E1,1.0479174E2,5.5630956E0],"tree_param":{"num_deleted":"0","num_feature":"15","num_nodes":"69","size_leaf_vector":"0"}},{"base_weights":[-4.1914338E-4,-5.7892156E-1,5.7346034E-1,6.785622E-2,-5.9861743E-1,5.9580904E-1,-5.793194E-1,-6.077007E-1,5.8764035E-1,3.241448E-1,6.300845E-1,-6.4127773E-1,-1.17846385E-1,-6.260212E-1,-3.247586E-1,6.349974E-1,-6.2242355E-2,5.3624636E-1,-1.2397452E-2,-1.3307527E-1,6.317568E-1,-4.2830864E-1,-6.814756E-2,1.6111591E-1,-5.53947E-1,-1.7610992E-1,-6.2881666E-1,1.5991993E-2,-5.3401554E-1,4.885971E-1,6.5883845E-2,6.7306334E-1,3.8401642E-1,-1.5273906E-1,4.7176218E-1,4.2444655E-1,-6.436806E-2,5.527686E-1,6.382407E-1,-2.3751253E-2,-6.847029E-2,-3.563991E-1,4.2472062E-1,-7.293564E-2,5.06393E-2,-6.561613E-2,2.387945E-2,-6.390433E-2,-5.3466674E-2,7.680738E-3,-6.720566E-2,-4.3424558E-2,-6.738345E-2,5.4814E-2,-5.2153688E-2,6.761686E-2,2.7818719E-2,2.6845932E-2,6.1767172E-2,-1.4516064E-3,-5.5418413E-2,-4.549575E-2,5.655488E-2,-6.44203E-2,6.046499E-2,6.1316866E-2,2.9764641E-2,6.383073E-2,-3.8881183E-2,-6.507406E-2,3.6040302E-2,-7.109012E-2,3.2554254E-2,6.490281E-2,-5.7350524E-2],"categories":[],"categories_nodes":[],"categories_segments":[],"categories_sizes":[],"default_left":[0,0,0,0,0,0,0,0,0,0,0,0,0,0,0,0,0,0,0,0,0,0,0,0,0,0,0,0,0,0,0,0,0,0,0,0,0,0,0,0,0,0,0,0,0,0,0,0,0,0,0,0,0,0,0,0,0,0,0,0,0,0,0,0,0,0,0,0,0,0,0,0,0,0,0],"id":8,"left_children":[1,3,5,-1,7,9,11,13,15,17,19,21,23,25,27,29,-1,31,33,35,37,39,-1,41,43,45,47,49,51,53,-1,55,57,59,61,63,-1,65,67,69,-1,71,73,-1,-1,-1,-1,-1,-1,-1,-1,-1,-1,-1,-1,-1,-1,-1,-1,-1,-1,-1,-1,-1,-1,-1,-1,-1,-1,-1,-1,-1,-1,-1,-1],"loss_changes":[2.0417527E4,7.5894824E2,7.9574316E2,0E0,3.252793E2,2.8181055E2,1.6726898E1,1.549248E2,1.3555481E1,2.423599E2,3.4405273E1,4.1415863E0,8.70081E0,3.523633E1,1.2992332E2,4.5119476E-1,0E0,4.311853E1,8.932385E1,1.7247282E1,1.3389648E1,8.792187E0,0E0,6.146413E0,5.547532E0,3.5000362E1,2.6550781E1,2.909812E1,1.545401E1,2.3843298E0,0E0,1.1551819E0,2.6514297E1,5.6541058E1,2.5934273E1,5.994646E0,0E0,3.1300293E1,1.9472656E0,8.4184675E0,0E0,3.9481115E0,6.993582E0,0E0,0E0,0E0,0E0,0E0,0E0,0E0,0E0,0E0,0E0,0E0,0E0,0E0,0E0,0E0,0E0,0E0,0E0,0E0,0E0,0E0,0E0,0E0,0E0,0E0,0E0,0E0,0E0,0E0,0E0,0E0,0E0],"parents":[2147483647,0,0,1,1,2,2,4,4,5,5,6,6,7,7,8,8,9,9,10,10,11,11,12,12,13,13,14,14,15,15,17,17,18,18,19,19,20,20,21,21,23,23,24,24,25,25,26,26,27,27,28,28,29,29,31,31,32,32,33,33,34,34,35,35,37,37,38,38,39,39,41,41,42,42],"right_children":[2,4,6,-1,8,10,12,14,16,18,20,22,24,26,28,30,-1,32,34,36,38,40,-1,42,44,46,48,50,52,54,-1,56,58,60,62,64,-1,66,68,70,-1,72,74,-1,-1,-1,-1,-1,-1,-1,-1,-1,-1,-1,-1,-1,-1,-1,-1,-1,-1,-1,-1,-1,-1,-1,-1,-1,-1,-1,-1,-1,-1,-1,-1],"split_conditions":[-3.722796E-2,3.0103E-1,1.6720978E0,6.785622E-2,2.0148951E-1,3.657931E-3,2.7632233E-2,-6.1454494E-2,3.4512236E-4,1.5980622E-4,-3.7254763E-1,1.2780533E-3,2.7347005E-3,3.389638E-5,2.0793806E-4,-8.331693E-2,-6.2242355E-2,3.7991427E-5,2.1387264E-1,9.0036535E-1,2.7632233E-2,4.043493E-1,-6.814756E-2,4.8002177E-1,2.9292998E-1,-1.2669421E-2,-9.560707E-2,7.582844E-1,1.80618E0,1.11895666E-1,6.5883845E-2,4.7712126E-1,1.5394047E-1,3.119368E-4,-1.6543925E-2,4.71162E-2,-6.436806E-2,2.210877E-4,1.0000001E0,-2.4837696E-3,-6.847029E-2,6.751896E-2,5.554083E-1,-7.293564E-2,5.06393E-2,-6.561613E-2,2.387945E-2,-6.390433E-2,-5.3466674E-2,7.680738E-3,-6.720566E-2,-4.3424558E-2,-6.738345E-2,5.4814E-2,-5.2153688E-2,6.761686E-2,2.7818719E-2,2.6845932E-2,6.1767172E-2,-1.4516064E-3,-5.5418413E-2,-4.549575E-2,5.655488E-2,-6.44203E-2,6.046499E-2,6.1316866E-2,2.9764641E-2,6.383073E-2,-3.8881183E-2,-6.507406E-2,3.6040302E-2,-7.109012E-2,3.2554254E-2,6.490281E-2,-5.7350524E-2],"split_indices":[13,3,3,0,8,13,13,13,0,0,8,0,0,0,0,13,0,0,9,6,13,6,0,6,10,14,13,6,3,12,0,3,9,0,8,13,0,0,6,13,0,13,6,0,0,0,0,0,0,0,0,0,0,0,0,0,0,0,0,0,0,0,0,0,0,0,0,0,0,0,0,0,0,0,0],"split_type":[0,0,0,0,0,0,0,0,0,0,0,0,0,0,0,0,0,0,0,0,0,0,0,0,0,0,0,0,0,0,0,0,0,0,0,0,0,0,0,0,0,0,0,0,0,0,0,0,0,0,0,0,0,0,0,0,0,0,0,0,0,0,0,0,0,0,0,0,0,0,0,0,0,0,0],"sum_hessian":[6.149831E4,3.0625795E4,3.0872514E4,4.7177664E2,3.015402E4,3.0285852E4,5.866621E2,2.9925367E4,2.2865222E2,3.3941995E3,2.689165E4,5.1687573E2,6.978638E1,2.8104393E4,1.8209736E3,2.2049805E2,8.154179E0,2.0816636E3,1.3125359E3,5.862644E1,2.6833025E4,8.392019E1,4.3295557E2,4.2945683E1,2.6840693E1,1.739396E2,2.7930453E4,6.931626E2,1.127811E3,3.388915E1,1.866089E2,1.0945306E3,9.87133E2,1.0181058E3,2.9443015E2,2.8106327E1,3.0520111E1,2.0420842E3,2.4790941E4,3.2977905E1,5.094228E1,1.4374096E1,2.8571589E1,2.329861E1,3.5420828E0,8.036939E1,9.357021E1,2.5188654E4,2.7417993E3,6.3768695E2,5.547564E1,6.605625E2,4.6724854E2,3.2434628E1,1.4545182E0,1.0852838E3,9.246797E0,6.6192084E2,3.2521216E2,7.581132E2,2.5999255E2,2.6704811E1,2.6772534E2,3.6840646E0,2.4422262E1,1.6500354E3,3.9204874E2,2.4789709E4,1.2310166E0,1.2265337E1,2.0712568E1,9.429683E0,4.944413E0,2.3614975E1,4.9566126E0],"tree_param":{"num_deleted":"0","num_feature":"15","num_nodes":"75","size_leaf_vector":"0"}},{"base_weights":[1.2629908E-3,-5.6088847E-1,5.563856E-1,5.57345E-1,-5.8271337E-1,5.789568E-1,-5.684354E-1,-4.982796E-1,6.358987E-1,-5.917731E-1,5.670522E-1,2.9088968E-1,6.103634E-1,-6.178124E-1,2.9770255E-1,-6.371251E-2,5.5539597E-2,-4.6946865E-2,6.417928E-1,-6.193823E-1,-3.944624E-1,6.141275E-1,-6.012013E-2,5.5217606E-1,2.7963826E-2,6.129879E-1,-1.4259169E-1,-6.544188E-1,-3.291579E-1,5.968865E-1,-6.0980644E-2,-3.700712E-2,6.4480215E-1,-6.20324E-1,-2.7775583E-1,-2.0782477E-1,-6.0951465E-1,6.3080454E-1,3.3015803E-1,6.5099406E-1,3.9855057E-1,-9.179876E-2,5.328491E-1,5.304883E-1,6.2124157E-1,-6.654777E-2,5.587439E-1,-6.771623E-2,-5.584913E-1,7.377645E-2,-4.3119216E-1,6.516182E-2,-3.236688E-2,5.282196E-2,6.598403E-2,-6.2355865E-2,-5.4939188E-2,6.953319E-2,-6.2458586E-2,1.9469455E-2,-2.8502379E-2,-6.2791616E-2,-3.9796896E-2,6.379321E-2,4.020848E-2,-6.259879E-2,5.8890432E-2,6.603121E-2,5.3511705E-2,-7.023703E-2,4.2672798E-2,-6.293534E-2,-8.107945E-4,-6.438156E-2,5.805346E-2,6.4679734E-2,3.958599E-2,6.0379583E-2,6.234795E-2,-5.3044792E-2,6.1589003E-2,5.1579412E-2,-6.37671E-2,-7.3338956E-2,-1.6173884E-2],"categories":[],"categories_nodes":[],"categories_segments":[],"categories_sizes":[],"default_left":[0,0,0,0,0,0,0,0,0,0,0,0,0,0,0,0,0,0,0,0,0,0,0,0,0,0,0,0,0,0,0,0,0,0,0,0,0,0,0,0,0,0,0,0,0,0,0,0,0,0,0,0,0,0,0,0,0,0,0,0,0,0,0,0,0,0,0,0,0,0,0,0,0,0,0,0,0,0,0,0,0,0,0,0,0],"id":9,"left_children":[1,3,5,7,9,11,13,15,17,19,21,23,25,27,29,-1,-1,-1,31,33,35,37,-1,39,41,43,45,47,49,51,-1,-1,53,55,57,59,61,63,65,67,69,71,73,75,77,-1,79,-1,81,-1,83,-1,-1,-1,-1,-1,-1,-1,-1,-1,-1,-1,-1,-1,-1,-1,-1,-1,-1,-1,-1,-1,-1,-1,-1,-1,-1,-1,-1,-1,-1,-1,-1,-1,-1],"loss_changes":[1.7977533E4,6.9888184E2,7.3623047E2,4.579715E1,2.9278613E2,2.5690625E2,2.4591293E1,5.9932766E0,3.6299896E0,1.5150879E2,1.2468681E1,1.9202522E2,5.0717773E1,5.4931793E0,8.904351E0,0E0,0E0,0E0,1.7874298E0,7.6884766E0,1.3722968E2,7.9561615E-1,0E0,2.1024475E1,8.436198E1,1.705664E1,3.330508E1,6.656189E-1,7.1562057E0,1.4282436E0,0E0,0E0,5.411682E-1,5.2490234E0,2.3714077E1,5.703472E1,5.937805E0,6.8107605E-2,3.796801E0,5.6622314E-1,1.7404518E1,5.0736877E1,1.538253E1,3.6211853E1,5.292969E-1,0E0,2.7480135E0,0E0,8.613808E0,0E0,4.6011353E0,0E0,0E0,0E0,0E0,0E0,0E0,0E0,0E0,0E0,0E0,0E0,0E0,0E0,0E0,0E0,0E0,0E0,0E0,0E0,0E0,0E0,0E0,0E0,0E0,0E0,0E0,0E0,0E0,0E0,0E0,0E0,0E0,0E0,0E0],"parents":[2147483647,0,0,1,1,2,2,3,3,4,4,5,5,6,6,7,7,8,8,9,9,10,10,11,11,12,12,13,13,14,14,18,18,19,19,20,20,21,21,23,23,24,24,25,25,26,26,27,27,28,28,29,29,32,32,33,33,34,34,35,35,36,36,37,37,38,38,39,39,40,40,41,41,42,42,43,43,44,44,46,46,48,48,50,50],"right_children":[2,4,6,8,10,12,14,16,18,20,22,24,26,28,30,-1,-1,-1,32,34,36,38,-1,40,42,44,46,48,50,52,-1,-1,54,56,58,60,62,64,66,68,70,72,74,76,78,-1,80,-1,82,-1,84,-1,-1,-1,-1,-1,-1,-1,-1,-1,-1,-1,-1,-1,-1,-1,-1,-1,-1,-1,-1,-1,-1,-1,-1,-1,-1,-1,-1,-1,-1,-1,-1,-1,-1],"split_conditions":[-3.722796E-2,2.80862E-5,6.223999E-4,-1.4584775E-1,2.0148951E-1,-2.4837696E-3,2.659798E-1,5.1741505E-1,-5.8810496E-1,-8.331693E-2,3.4512236E-4,1.19675526E-4,9.0036535E-1,2.7632233E-2,5.528038E-1,-6.371251E-2,5.5539597E-2,-4.6946865E-2,2.7238302E-2,3.2408202E-1,2.9176392E-4,2.9584582E-4,-6.012013E-2,4.183295E-5,2.4022496E-1,2.7632233E-2,-1.885308E-1,3.7864137E-1,1.273958E-1,2.277492E-1,-6.0980644E-2,-3.700712E-2,-1.0556708E-1,-9.7361214E-2,2.0962422E-1,7.077442E-5,1.255547E-1,1.2741125E-1,8.323149E-1,3.389638E-5,-3.657004E-1,2.2558494E-2,-1.0927588E-2,8.35294E-5,5.6529526E-2,-6.654777E-2,4.4788092E-1,-6.771623E-2,3.7964505E-1,7.377645E-2,9.190395E-2,6.516182E-2,-3.236688E-2,5.282196E-2,6.598403E-2,-6.2355865E-2,-5.4939188E-2,6.953319E-2,-6.2458586E-2,1.9469455E-2,-2.8502379E-2,-6.2791616E-2,-3.9796896E-2,6.379321E-2,4.020848E-2,-6.259879E-2,5.8890432E-2,6.603121E-2,5.3511705E-2,-7.023703E-2,4.2672798E-2,-6.293534E-2,-8.107945E-4,-6.438156E-2,5.805346E-2,6.4679734E-2,3.958599E-2,6.0379583E-2,6.234795E-2,-5.3044792E-2,6.1589003E-2,5.1579412E-2,-6.37671E-2,-7.3338956E-2,-1.6173884E-2],"split_indices":[13,0,0,13,8,13,10,5,8,13,0,0,6,13,6,0,0,0,10,9,0,0,0,0,9,13,8,7,10,2,0,0,13,13,11,0,12,12,5,0,8,14,8,0,13,0,7,0,7,0,12,0,0,0,0,0,0,0,0,0,0,0,0,0,0,0,0,0,0,0,0,0,0,0,0,0,0,0,0,0,0,0,0,0,0],"split_type":[0,0,0,0,0,0,0,0,0,0,0,0,0,0,0,0,0,0,0,0,0,0,0,0,0,0,0,0,0,0,0,0,0,0,0,0,0,0,0,0,0,0,0,0,0,0,0,0,0,0,0,0,0,0,0,0,0,0,0,0,0,0,0,0,0,0,0,0,0,0,0,0,0,0,0,0,0,0,0,0,0,0,0,0,0],"sum_hessian":[5.760667E4,2.8622127E4,2.8984547E4,5.474629E2,2.8074664E4,2.8414844E4,5.6970154E2,3.7547466E1,5.0991544E2,2.7855658E4,2.1900641E2,2.794395E3,2.562045E4,5.392467E2,3.0454824E1,3.3525112E1,4.022357E0,2.287413E0,5.0762802E2,2.4434455E4,3.4212012E3,2.1097922E2,8.027194E0,1.4010155E3,1.3933796E3,2.5531645E4,8.880525E1,4.774328E2,6.18139E1,2.3161362E1,7.293464E0,1.1435761E0,5.0648444E2,2.4366479E4,6.797794E1,1.8326572E3,1.5885441E3,1.9812244E2,1.28567705E1,8.5062335E2,5.503921E2,1.1268907E3,2.6648883E2,2.3279573E3,2.3203688E4,5.09043E1,3.790095E1,3.8103403E2,9.639877E1,4.8516827E0,5.6962215E1,2.2137331E1,1.0240295E0,6.199521E1,4.4448923E2,2.3296326E4,1.0701521E3,1.7598284E1,5.0379654E1,2.9467673E2,1.5379805E3,1.4596105E3,1.2893365E2,1.9039989E2,7.7225533E0,2.4359367E0,1.0420834E1,7.829647E2,6.765866E1,1.3138306E1,5.372538E2,1.509303E2,9.759605E2,9.892216E0,2.5659662E2,1.2469125E3,1.0810447E3,2.6688909E3,2.0534797E4,1.4765208E0,3.642443E1,6.238778E0,9.0159996E1,2.6038141E1,3.0924074E1],"tree_param":{"num_deleted":"0","num_feature":"15","num_nodes":"85","size_leaf_vector":"0"}},{"base_weights":[-2.4184303E-3,-5.4270875E-1,5.4482543E-1,5.5076677E-1,-5.6519985E-1,5.6542784E-1,-5.101436E-1,-4.9514914E-1,6.2221485E-1,-5.7413363E-1,5.6005627E-1,2.0839895E-1,5.8817923E-1,-5.675159E-1,1.6628934E-1,-6.232239E-2,5.081405E-2,2.5311977E-1,6.34591E-1,-6.0311604E-1,-3.8166437E-1,5.964844E-1,-5.6339253E-2,5.694457E-1,-3.1763837E-2,5.9358376E-1,-2.8579652E-1,-3.6069915E-1,-6.586867E-2,4.7301507E-1,-5.9711676E-2,5.5463362E-2,-5.838735E-2,6.4904906E-2,5.054755E-1,-6.1170256E-1,-5.49354E-1,-5.236088E-2,-5.072473E-1,6.184134E-2,2.6260635E-1,6.646206E-1,3.7184158E-1,4.6901736E-2,-4.3873653E-1,5.0603426E-1,6.062418E-1,-6.0702735E-1,5.04569E-1,-5.5551454E-2,-5.648794E-1,-4.693551E-2,5.8155127E-2,-6.273753E-2,5.639654E-2,-6.121236E-2,-5.3173315E-2,-2.7946988E-2,-5.796696E-2,-6.5109506E-2,1.4417755E-3,-5.2649952E-2,2.7411206E-2,-5.7887416E-2,5.7378005E-2,6.665329E-2,3.4127813E-2,-7.562112E-2,4.0248852E-2,1.5854958E-2,-2.275252E-2,-5.6008082E-2,2.4725026E-2,5.6860935E-2,2.6039446E-2,5.6798548E-2,6.0763266E-2,5.1149547E-2,-6.503458E-2,5.8601715E-2,-5.2849945E-2,-4.6366256E-2,5.523721E-2,-6.767359E-2,1.0870342E-2],"categories":[],"categories_nodes":[],"categories_segments":[],"categories_sizes":[],"default_left":[0,0,0,0,0,0,0,0,0,0,0,0,0,0,0,0,0,0,0,0,0,0,0,0,0,0,0,0,0,0,0,0,0,0,0,0,0,0,0,0,0,0,0,0,0,0,0,0,0,0,0,0,0,0,0,0,0,0,0,0,0,0,0,0,0,0,0,0,0,0,0,0,0,0,0,0,0,0,0,0,0,0,0,0,0],"id":10,"left_children":[1,3,5,7,9,11,13,15,17,19,21,23,25,27,29,-1,-1,31,33,35,37,39,-1,41,43,45,47,49,-1,51,-1,-1,-1,-1,53,55,57,59,61,-1,63,65,67,69,71,73,75,77,79,81,83,-1,-1,-1,-1,-1,-1,-1,-1,-1,-1,-1,-1,-1,-1,-1,-1,-1,-1,-1,-1,-1,-1,-1,-1,-1,-1,-1,-1,-1,-1,-1,-1,-1,-1],"loss_changes":[1.5849435E4,6.6369385E2,5.791138E2,4.0970703E1,2.6602344E2,2.1206055E2,1.991159E1,4.859126E0,2.1680603E0,1.4604785E2,8.876961E0,1.3584102E2,1.1615918E2,8.6423645E0,9.812063E0,0E0,0E0,4.9175353E0,5.914612E-1,1.018457E1,1.420134E2,1.3211594E0,0E0,1.1521835E1,3.0166498E1,2.6740234E1,3.8794334E1,9.083733E0,0E0,3.2995315E0,0E0,0E0,0E0,0E0,3.9401283E0,3.3642578E-1,2.5596558E1,3.7966507E1,3.7545593E1,0E0,4.0572515E0,3.2913208E-2,7.4155025E0,2.4241066E1,1.2843065E1,4.733136E1,7.890625E-1,5.577156E0,4.041708E0,1.5081907E1,6.669281E0,0E0,0E0,0E0,0E0,0E0,0E0,0E0,0E0,0E0,0E0,0E0,0E0,0E0,0E0,0E0,0E0,0E0,0E0,0E0,0E0,0E0,0E0,0E0,0E0,0E0,0E0,0E0,0E0,0E0,0E0,0E0,0E0,0E0,0E0],"parents":[2147483647,0,0,1,1,2,2,3,3,4,4,5,5,6,6,7,7,8,8,9,9,10,10,11,11,12,12,13,13,14,14,17,17,18,18,19,19,20,20,21,21,23,23,24,24,25,25,26,26,27,27,29,29,34,34,35,35,36,36,37,37,38,38,40,40,41,41,42,42,43,43,44,44,45,45,46,46,47,47,48,48,49,49,50,50],"right_children":[2,4,6,8,10,12,14,16,18,20,22,24,26,28,30,-1,-1,32,34,36,38,40,-1,42,44,46,48,50,-1,52,-1,-1,-1,-1,54,56,58,60,62,-1,64,66,68,70,72,74,76,78,80,82,84,-1,-1,-1,-1,-1,-1,-1,-1,-1,-1,-1,-1,-1,-1,-1,-1,-1,-1,-1,-1,-1,-1,-1,-1,-1,-1,-1,-1,-1,-1,-1,-1,-1,-1],"split_conditions":[-3.4228183E-2,2.80862E-5,6.223999E-4,-1.4584775E-1,2.0148951E-1,5.589081E-2,2.484571E-1,5.1741505E-1,-2.4454009E-2,-8.331693E-2,5.5091287E-4,7.373147E-5,8.939487E-1,1.6491696E-3,3.3470185E-3,-6.232239E-2,5.081405E-2,1.7189837E-5,2.270551E-5,-1.24145426E-1,1.6650255E-4,2.9584582E-4,-5.6339253E-2,3.389638E-5,3.0859324E-4,2.7632233E-2,-1.9629368E-1,1.487817E-1,-6.586867E-2,2.7632233E-2,-5.9711676E-2,5.5463362E-2,-5.838735E-2,6.4904906E-2,-5.1934898E-2,2.7476558E-1,1.0754748E-4,-3.1893006E-1,8.713296E-2,6.184134E-2,8.45098E-1,4.1331583E-1,1.3624904E-2,4.9349657E-1,3.657931E-3,2.3403636E-4,3.6673266E-2,2.1558328E-5,1.878727E-4,-2.4837696E-3,3.6673266E-2,-4.693551E-2,5.8155127E-2,-6.273753E-2,5.639654E-2,-6.121236E-2,-5.3173315E-2,-2.7946988E-2,-5.796696E-2,-6.5109506E-2,1.4417755E-3,-5.2649952E-2,2.7411206E-2,-5.7887416E-2,5.7378005E-2,6.665329E-2,3.4127813E-2,-7.562112E-2,4.0248852E-2,1.5854958E-2,-2.275252E-2,-5.6008082E-2,2.4725026E-2,5.6860935E-2,2.6039446E-2,5.6798548E-2,6.0763266E-2,5.1149547E-2,-6.503458E-2,5.8601715E-2,-5.2849945E-2,-4.6366256E-2,5.523721E-2,-6.767359E-2,1.0870342E-2],"split_indices":[13,0,0,13,8,14,1,5,14,13,0,0,6,0,0,0,0,0,0,13,0,0,0,0,0,13,8,1,0,13,0,0,0,0,9,9,0,8,8,0,4,7,14,6,13,0,13,0,0,13,13,0,0,0,0,0,0,0,0,0,0,0,0,0,0,0,0,0,0,0,0,0,0,0,0,0,0,0,0,0,0,0,0,0,0],"split_type":[0,0,0,0,0,0,0,0,0,0,0,0,0,0,0,0,0,0,0,0,0,0,0,0,0,0,0,0,0,0,0,0,0,0,0,0,0,0,0,0,0,0,0,0,0,0,0,0,0,0,0,0,0,0,0,0,0,0,0,0,0,0,0,0,0,0,0,0,0,0,0,0,0,0,0,0,0,0,0,0,0,0,0,0,0],"sum_hessian":[5.360305E4,2.6972895E4,2.6630154E4,5.4313666E2,2.6429758E4,2.6120514E4,5.0964105E2,3.4350815E1,5.0878586E2,2.6222062E4,2.0769579E2,1.5654045E3,2.455511E4,4.699434E2,3.969768E1,3.0798107E1,3.5527072E0,1.7202597E1,4.9158328E2,2.2788404E4,3.4336582E3,2.0162703E2,6.0687532E0,6.247782E2,9.4062634E2,2.4404516E4,1.5059355E2,1.4529796E2,3.2464542E2,2.8590725E1,1.1106958E1,1.2894796E1,4.3078003E0,4.3845874E2,5.312455E1,1.964109E4,3.1473135E3,9.4833984E2,2.4853184E3,1.8840074E2,1.3226287E1,4.2008395E2,2.0469426E2,7.8900146E2,1.5162486E2,3.0879058E3,2.131661E4,1.0723972E2,4.335382E1,5.8757248E1,8.654072E1,2.609471E0,2.5981253E1,2.130678E0,5.099387E1,1.9531604E4,1.0948655E2,3.1886255E2,2.828451E3,9.427997E1,8.540599E2,2.4258726E3,5.944563E1,3.3383577E0,9.887929E0,4.16559E2,3.5249512E0,4.787861E0,1.999064E2,5.6113257E2,2.2786888E2,1.2899115E2,2.2633726E1,2.4599377E3,6.279678E2,7.621424E2,2.0554467E4,3.5953984E0,1.03644325E2,4.058667E1,2.7671518E0,3.5298183E1,2.3459066E1,7.421221E1,1.2328502E1],"tree_param":{"num_deleted":"0","num_feature":"15","num_nodes":"85","size_leaf_vector":"0"}},{"base_weights":[-2.4610097E-3,-4.6879417E-1,5.0474185E-1,5.390331E-1,-5.180859E-1,5.499943E-1,-2.7121335E-1,-3.5182038E-1,5.886216E-1,-2.7808705E-1,-5.7432467E-1,5.6585497E-1,-5.1599264E-1,-4.978076E-1,3.3475193E-1,5.818035E-2,-5.14428E-1,6.4674385E-2,3.080458E-1,-4.5136474E-2,-5.475162E-1,-5.786842E-1,4.592808E-1,-2.6426956E-1,5.7346356E-1,-5.6799793E-1,4.871922E-1,3.546775E-1,-5.406385E-1,-3.9613563E-1,4.8286596E-1,-6.0189616E-2,5.583294E-2,-5.996721E-2,4.0447852E-1,-1.992506E-1,3.09841E-1,-5.917672E-1,-2.5618258E-1,-5.860704E-1,-2.9280007E-1,5.3500533E-1,-5.5488136E-2,2.945035E-1,-5.527357E-1,4.643947E-1,5.896434E-1,3.1162591E-3,-5.812121E-1,6.203078E-2,-3.9670933E-2,-5.39785E-2,5.62856E-1,-5.561548E-1,5.7079196E-2,-6.1894335E-2,1.7690924E-1,5.069082E-1,-5.6227285E-2,-6.7818284E-2,4.7938265E-2,-2.5463182E-2,5.425134E-2,-6.1766632E-2,3.336383E-2,-6.0300272E-2,-4.4483086E-3,-1.0644918E-2,-6.300228E-2,-5.9761643E-2,-5.3699143E-2,2.103681E-2,-4.5677867E-2,-4.5028713E-2,5.6828428E-2,5.0251193E-2,-3.65705E-2,3.3622306E-2,-6.1879035E-2,5.45398E-2,1.3034052E-2,3.5982095E-2,5.909852E-2,4.450838E-2,-5.8345545E-2,-4.0798094E-2,-6.1964024E-2,-4.3659117E-2,6.4320885E-2,-2.3765696E-2,-5.726474E-2,5.914068E-2,-5.5109996E-2,5.217476E-2,-4.8568618E-2],"categories":[],"categories_nodes":[],"categories_segments":[],"categories_sizes":[],"default_left":[0,0,0,0,0,0,0,0,0,0,0,0,0,0,0,0,0,0,0,0,0,0,0,0,0,0,0,0,0,0,0,0,0,0,0,0,0,0,0,0,0,0,0,0,0,0,0,0,0,0,0,0,0,0,0,0,0,0,0,0,0,0,0,0,0,0,0,0,0,0,0,0,0,0,0,0,0,0,0,0,0,0,0,0,0,0,0,0,0,0,0,0,0,0,0],"id":11,"left_children":[1,3,5,7,9,11,13,15,17,19,21,23,25,27,29,-1,31,-1,33,35,37,39,41,43,45,47,49,51,53,55,57,-1,-1,-1,59,61,63,65,67,69,71,73,-1,75,77,79,81,83,85,-1,-1,-1,87,89,-1,-1,91,93,-1,-1,-1,-1,-1,-1,-1,-1,-1,-1,-1,-1,-1,-1,-1,-1,-1,-1,-1,-1,-1,-1,-1,-1,-1,-1,-1,-1,-1,-1,-1,-1,-1,-1,-1,-1,-1],"loss_changes":[1.1790632E4,1.2904541E3,8.386094E2,5.372534E1,3.3403857E2,3.8176758E2,1.8092992E2,1.0092186E1,1.8521545E1,2.951255E2,9.065283E1,1.405752E2,1.7561455E1,3.519214E1,3.90437E1,0E0,5.540742E0,0E0,1.7653585E1,1.3809319E2,2.7958496E1,4.2007812E1,6.8098125E0,3.2820732E1,3.8604492E1,2.382393E0,2.230668E0,8.955274E0,1.6064453E1,7.901046E0,7.7949524E0,0E0,0E0,0E0,1.4954952E1,7.24348E1,1.707351E1,1.1608215E1,1.6126003E1,1.0712891E1,4.1770054E1,2.8601723E0,0E0,9.746841E0,8.074913E0,7.7067444E1,5.70166E0,2.3668828E0,1.7996445E0,0E0,0E0,0E0,3.3469086E0,4.5970154E0,0E0,0E0,5.7159934E0,4.56443E0,0E0,0E0,0E0,0E0,0E0,0E0,0E0,0E0,0E0,0E0,0E0,0E0,0E0,0E0,0E0,0E0,0E0,0E0,0E0,0E0,0E0,0E0,0E0,0E0,0E0,0E0,0E0,0E0,0E0,0E0,0E0,0E0,0E0,0E0,0E0,0E0,0E0],"parents":[2147483647,0,0,1,1,2,2,3,3,4,4,5,5,6,6,7,7,8,8,9,9,10,10,11,11,12,12,13,13,14,14,16,16,18,18,19,19,20,20,21,21,22,22,23,23,24,24,25,25,26,26,27,27,28,28,29,29,30,30,34,34,35,35,36,36,37,37,38,38,39,39,40,40,41,41,43,43,44,44,45,45,46,46,47,47,48,48,52,52,53,53,56,56,57,57],"right_children":[2,4,6,8,10,12,14,16,18,20,22,24,26,28,30,-1,32,-1,34,36,38,40,42,44,46,48,50,52,54,56,58,-1,-1,-1,60,62,64,66,68,70,72,74,-1,76,78,80,82,84,86,-1,-1,-1,88,90,-1,-1,92,94,-1,-1,-1,-1,-1,-1,-1,-1,-1,-1,-1,-1,-1,-1,-1,-1,-1,-1,-1,-1,-1,-1,-1,-1,-1,-1,-1,-1,-1,-1,-1,-1,-1,-1,-1,-1,-1],"split_conditions":[7.201356E-2,3.389638E-5,2.7309924E-1,-2.6205933E-2,1.823085E-1,1.4771212E0,2.4481739E-1,3.0103E-1,3.0103E-1,2.5219301E-4,1.7566922E-1,-3.4128484E-1,2.7301413E-1,7.716352E-5,-1.0818659E-1,5.818035E-2,5.263235E-1,6.4674385E-2,-3.2206777E-1,3.717348E-2,4.811548E-2,1.635612E-1,3.4512236E-4,3.7220132E-1,1.1844016E-1,1.5563025E0,2.177684E-1,1.9300798E-1,2.5513053E-1,1.17465645E-1,3.4155852E-1,-6.0189616E-2,5.583294E-2,-5.996721E-2,-1.2669421E-2,5.443542E-1,-4.35826E-1,2.4022496E-1,1.4211765E-3,1.0910907E-1,2.0059581E-1,5.8848685E-1,-5.5488136E-2,1.9630787E-1,5.997592E-5,2.2288812E-4,-2.68368E-1,3.4658843E-1,1.633211E-1,6.203078E-2,-3.9670933E-2,-5.39785E-2,-1.5988645E-1,1.22594E-1,5.7079196E-2,-6.1894335E-2,1.561327E-4,5.0615106E-4,-5.6227285E-2,-6.7818284E-2,4.7938265E-2,-2.5463182E-2,5.425134E-2,-6.1766632E-2,3.336383E-2,-6.0300272E-2,-4.4483086E-3,-1.0644918E-2,-6.300228E-2,-5.9761643E-2,-5.3699143E-2,2.103681E-2,-4.5677867E-2,-4.5028713E-2,5.6828428E-2,5.0251193E-2,-3.65705E-2,3.3622306E-2,-6.1879035E-2,5.45398E-2,1.3034052E-2,3.5982095E-2,5.909852E-2,4.450838E-2,-5.8345545E-2,-4.0798094E-2,-6.1964024E-2,-4.3659117E-2,6.4320885E-2,-2.3765696E-2,-5.726474E-2,5.914068E-2,-5.5109996E-2,5.217476E-2,-4.8568618E-2],"split_indices":[14,0,11,14,11,3,10,3,3,0,8,8,10,0,8,0,5,0,8,14,14,10,0,5,14,3,2,10,8,12,11,0,0,0,14,5,8,9,0,10,11,5,0,11,0,0,8,7,11,0,0,0,8,2,0,0,0,0,0,0,0,0,0,0,0,0,0,0,0,0,0,0,0,0,0,0,0,0,0,0,0,0,0,0,0,0,0,0,0,0,0,0,0,0,0],"split_type":[0,0,0,0,0,0,0,0,0,0,0,0,0,0,0,0,0,0,0,0,0,0,0,0,0,0,0,0,0,0,0,0,0,0,0,0,0,0,0,0,0,0,0,0,0,0,0,0,0,0,0,0,0,0,0,0,0,0,0,0,0,0,0,0,0,0,0,0,0,0,0,0,0,0,0,0,0,0,0,0,0,0,0,0,0,0,0,0,0,0,0,0,0,0,0],"sum_hessian":[4.9847305E4,2.5970004E4,2.3877303E4,1.210475E3,2.4759527E4,2.2561824E4,1.3154781E3,6.3505684E1,1.1469692E3,4.7015635E3,2.0057965E4,2.2231514E4,3.3031E2,9.575799E2,3.5789825E2,9.037611E0,5.446807E1,9.490627E2,1.9790659E2,2.522102E3,2.1794614E3,1.9974158E4,8.380739E1,2.0160895E2,2.2029904E4,3.1444302E2,1.586697E1,4.5461258E1,9.121186E2,6.0024616E1,2.9787363E2,5.076762E1,3.700453E0,1.8504627E1,1.7940196E2,1.7589077E3,7.6319434E2,1.8911774E3,2.8828406E2,1.9470072E4,5.0408502E2,7.842415E1,5.383236E0,6.8636246E1,1.329727E2,2.8496997E3,1.9180205E4,7.128185E0,3.0731485E2,1.4049354E1,1.8176167E0,8.282343E0,3.7178913E1,9.000529E2,1.2065714E1,4.316239E1,1.6862225E1,2.916789E2,6.1947465E0,1.1087636E1,1.6831432E2,1.6373197E3,1.21588066E2,1.8467373E1,7.447269E2,1.8530334E3,3.8143967E1,2.0675691E2,8.152716E1,1.5752964E4,3.7171086E3,1.2382998E2,3.8025504E2,2.1528854E0,7.627126E1,5.2373924E1,1.626232E1,8.914324E0,1.2405838E2,2.293038E3,5.5666144E2,1.1288915E2,1.9067316E4,4.2027364E0,2.9254482E0,5.7904144E1,2.4941069E2,2.4367404E0,3.4742172E1,4.5071022E1,8.549819E2,1.0864231E1,5.9979935E0,2.8784985E2,3.8290358E0],"tree_param":{"num_deleted":"0","num_feature":"15","num_nodes":"95","size_leaf_vector":"0"}},{"base_weights":[-3.534288E-3,-5.1741624E-1,5.1819485E-1,6.26894E-2,-5.3719795E-1,5.383748E-1,-5.4374075E-1,-5.672001E-1,-1.9934195E-1,2.9409105E-1,5.713931E-1,-5.590225E-1,5.1220845E-2,-5.704003E-1,4.67001E-1,8.4267795E-2,-4.3032184E-1,5.3507674E-1,4.9086127E-2,4.817463E-1,5.8329266E-1,-6.1412615E-1,-3.840562E-1,-2.7119085E-1,-5.758699E-1,5.5306745E-1,-5.1846366E-2,-3.709375E-2,4.788471E-1,-4.7435156E-1,2.976502E-1,6.226189E-1,3.8291046E-1,-6.3480884E-2,4.675031E-1,5.571795E-1,2.730805E-1,5.8381057E-1,1.9320512E-1,-3.4250703E-1,-6.327856E-2,-4.5175442E-1,5.835391E-1,-5.7685416E-2,6.6961804E-3,-5.8883052E-2,-5.204586E-2,3.53225E-2,5.8461607E-2,1.9153541E-2,-1.781456E-2,5.1505204E-2,-5.3961154E-2,-3.7591808E-2,-6.235635E-2,4.6601348E-2,-5.5336516E-2,6.2627815E-2,3.727834E-2,2.817808E-2,5.767986E-2,1.1337845E-4,-5.9805848E-2,5.0200332E-2,-5.696392E-2,6.0639143E-2,4.738997E-2,1.1347541E-2,5.553797E-2,5.8535624E-2,5.63892E-2,4.6710785E-2,-5.6212664E-2,4.7504656E-2,-6.15016E-2,2.5296215E-2,-5.112363E-2,8.65399E-2,-3.508976E-2],"categories":[],"categories_nodes":[],"categories_segments":[],"categories_sizes":[],"default_left":[0,0,0,0,0,0,0,0,0,0,0,0,0,0,0,0,0,0,0,0,0,0,0,0,0,0,0,0,0,0,0,0,0,0,0,0,0,0,0,0,0,0,0,0,0,0,0,0,0,0,0,0,0,0,0,0,0,0,0,0,0,0,0,0,0,0,0,0,0,0,0,0,0,0,0,0,0,0,0],"id":12,"left_children":[1,3,5,-1,7,9,11,13,15,17,19,21,-1,23,25,27,29,31,33,35,37,39,41,43,45,47,-1,49,51,53,55,57,59,61,63,65,67,69,71,73,-1,75,77,-1,-1,-1,-1,-1,-1,-1,-1,-1,-1,-1,-1,-1,-1,-1,-1,-1,-1,-1,-1,-1,-1,-1,-1,-1,-1,-1,-1,-1,-1,-1,-1,-1,-1,-1,-1],"loss_changes":[1.2443796E4,5.296362E2,4.9383984E2,0E0,2.3288037E2,1.8213525E2,7.225006E0,7.013379E1,1.2294541E2,1.5899155E2,2.0957031E1,3.8552704E0,0E0,3.428711E1,5.8567247E0,4.0386803E1,3.3290817E1,1.7847046E1,6.2983395E1,3.6661804E1,3.4365234E0,1.410347E0,7.095805E0,3.9285393E1,1.4536133E1,1.7733955E-1,0E0,2.0855167E1,7.592396E0,1.4095139E1,8.797342E0,5.5300903E-1,9.610458E0,3.6411762E1,1.0429142E1,6.7489624E0,2.8005356E1,2.0996094E-1,5.3919115E0,5.3754454E0,0E0,4.2391415E0,2.2149217E0,0E0,0E0,0E0,0E0,0E0,0E0,0E0,0E0,0E0,0E0,0E0,0E0,0E0,0E0,0E0,0E0,0E0,0E0,0E0,0E0,0E0,0E0,0E0,0E0,0E0,0E0,0E0,0E0,0E0,0E0,0E0,0E0,0E0,0E0,0E0,0E0],"parents":[2147483647,0,0,1,1,2,2,4,4,5,5,6,6,7,7,8,8,9,9,10,10,11,11,13,13,14,14,15,15,16,16,17,17,18,18,19,19,20,20,21,21,22,22,23,23,24,24,25,25,27,27,28,28,29,29,30,30,31,31,32,32,33,33,34,34,35,35,36,36,37,37,38,38,39,39,41,41,42,42],"right_children":[2,4,6,-1,8,10,12,14,16,18,20,22,-1,24,26,28,30,32,34,36,38,40,42,44,46,48,-1,50,52,54,56,58,60,62,64,66,68,70,72,74,-1,76,78,-1,-1,-1,-1,-1,-1,-1,-1,-1,-1,-1,-1,-1,-1,-1,-1,-1,-1,-1,-1,-1,-1,-1,-1,-1,-1,-1,-1,-1,-1,-1,-1,-1,-1,-1,-1],"split_conditions":[-3.4228183E-2,3.0103E-1,1.6720978E0,6.26894E-2,-6.1454494E-2,3.657931E-3,1.1686606E-1,4.5466357E-1,2.116023E-4,1.19675526E-4,3.6673266E-2,1.0422343E-2,5.1220845E-2,4.8491136E-5,3.4512236E-4,1.4741057E-1,2.7476558E-1,4.183295E-5,2.1387264E-1,1.9346635E-4,1E0,1.0297404E-3,1.24594346E-1,-1.3737847E-1,-1.2269939E-1,4.9290776E-1,-5.1846366E-2,8.680417E-5,8.0490315E-1,1.80618E0,1.3222193E0,4.7712126E-1,1.5394047E-1,7.4142045E-1,8.369142E-1,5.997592E-5,2.4022496E-1,3.0404536E-4,1.8553334E-4,1.21770926E-1,-6.327856E-2,1.273958E-1,1.1779836E-3,-5.7685416E-2,6.6961804E-3,-5.8883052E-2,-5.204586E-2,3.53225E-2,5.8461607E-2,1.9153541E-2,-1.781456E-2,5.1505204E-2,-5.3961154E-2,-3.7591808E-2,-6.235635E-2,4.6601348E-2,-5.5336516E-2,6.2627815E-2,3.727834E-2,2.817808E-2,5.767986E-2,1.1337845E-4,-5.9805848E-2,5.0200332E-2,-5.696392E-2,6.0639143E-2,4.738997E-2,1.1347541E-2,5.553797E-2,5.8535624E-2,5.63892E-2,4.6710785E-2,-5.6212664E-2,4.7504656E-2,-6.15016E-2,2.5296215E-2,-5.112363E-2,8.65399E-2,-3.508976E-2],"split_indices":[13,3,3,0,13,13,13,9,0,0,13,13,0,0,0,9,9,0,9,0,6,0,12,13,13,9,0,0,6,3,3,3,9,6,6,0,9,0,0,5,0,10,0,0,0,0,0,0,0,0,0,0,0,0,0,0,0,0,0,0,0,0,0,0,0,0,0,0,0,0,0,0,0,0,0,0,0,0,0],"split_type":[0,0,0,0,0,0,0,0,0,0,0,0,0,0,0,0,0,0,0,0,0,0,0,0,0,0,0,0,0,0,0,0,0,0,0,0,0,0,0,0,0,0,0,0,0,0,0,0,0,0,0,0,0,0,0,0,0,0,0,0,0,0,0,0,0,0,0,0,0,0,0,0,0,0,0,0,0,0,0],"sum_hessian":[4.6411516E4,2.3381602E4,2.3029916E4,3.968088E2,2.2984793E4,2.2600924E4,4.2899124E2,2.110955E4,1.8752422E3,2.6922688E3,1.9908654E4,4.233353E2,5.6559362E0,2.1044879E4,6.467178E1,8.420106E2,1.0332316E3,1.3566704E3,1.3355985E3,2.3378298E3,1.7570826E4,3.2003415E2,1.0330115E2,3.7870627E2,2.0666172E4,5.988081E1,4.790969E0,6.4464264E2,1.9736804E2,9.746316E2,5.8599968E1,8.592481E2,4.9742227E2,1.053124E3,2.8247443E2,1.7158687E3,6.219612E2,1.7547033E4,2.379289E1,2.181641E1,2.9821774E2,9.704451E1,6.2566404E0,1.9853783E2,1.8016843E2,1.6740885E4,3.9252874E3,9.827215E0,5.0053596E1,2.4582695E2,3.9881567E2,1.9107002E2,6.298016E0,5.893578E2,3.8527377E2,4.9299126E1,9.300841E0,8.4535974E2,1.3888381E1,3.285224E2,1.6889989E2,9.4044934E2,1.1267471E2,2.7387985E2,8.594553E0,1.0745889E3,6.412798E2,3.9821954E2,2.2374165E2,1.6257098E4,1.2899344E3,1.7741096E1,6.051793E0,5.268165E0,1.6548244E1,7.3003435E0,8.974416E1,4.8635116E0,1.3931288E0],"tree_param":{"num_deleted":"0","num_feature":"15","num_nodes":"79","size_leaf_vector":"0"}},{"base_weights":[-1.5297339E-3,-5.08139E-1,5.001987E-1,6.1758954E-2,-5.279641E-1,5.225774E-1,-5.010717E-1,-5.6243396E-1,-2.8163055E-1,2.6517826E-1,5.6112075E-1,-5.388628E-1,2.8403544E-1,-5.6449264E-1,4.0065804E-1,-6.611795E-2,-4.9603283E-1,5.815738E-1,8.2853846E-2,5.6334245E-1,5.8615025E-2,-3.5508135E-1,-6.1177236E-1,5.7135295E-2,-5.3518284E-2,-5.785224E-1,-4.9584344E-1,4.9276912E-1,-4.7561333E-2,-1.794264E-1,4.4846722E-1,-5.1639724E-1,3.747429E-1,-6.983876E-2,5.8465666E-1,-2.9237185E-2,4.8042655E-1,4.638093E-1,5.722797E-1,-4.802112E-1,4.648761E-1,-5.4512405E-1,4.076204E-3,-6.3113034E-2,-5.1335293E-1,-5.787533E-2,4.586685E-2,-3.4478765E-2,-5.618455E-2,6.065036E-2,2.7925238E-2,6.123105E-3,-3.1257063E-2,-5.4947525E-2,4.9209148E-2,-4.2487342E-2,-6.1347883E-2,5.9011597E-2,-5.1314633E-2,6.1803233E-2,4.8263535E-2,5.4974933E-3,-4.1536685E-2,-1.48734255E-2,5.2828517E-2,5.6080192E-2,2.4836648E-2,4.3269813E-2,5.7294767E-2,2.8038803E-2,-6.1185103E-2,-4.776202E-2,5.0421655E-2,-6.361929E-2,-9.59228E-3,7.47182E-2,-2.1483762E-2,2.5159035E-2,-6.241509E-2],"categories":[],"categories_nodes":[],"categories_segments":[],"categories_sizes":[],"default_left":[0,0,0,0,0,0,0,0,0,0,0,0,0,0,0,0,0,0,0,0,0,0,0,0,0,0,0,0,0,0,0,0,0,0,0,0,0,0,0,0,0,0,0,0,0,0,0,0,0,0,0,0,0,0,0,0,0,0,0,0,0,0,0,0,0,0,0,0,0,0,0,0,0,0,0,0,0,0,0],"id":13,"left_children":[1,3,5,-1,7,9,11,13,15,17,19,21,23,25,27,29,31,33,35,37,39,41,43,-1,-1,45,47,49,-1,51,53,55,57,-1,59,61,63,65,67,69,71,73,75,-1,77,-1,-1,-1,-1,-1,-1,-1,-1,-1,-1,-1,-1,-1,-1,-1,-1,-1,-1,-1,-1,-1,-1,-1,-1,-1,-1,-1,-1,-1,-1,-1,-1,-1,-1],"loss_changes":[1.0942785E4,4.7840234E2,4.8492383E2,0E0,1.7858984E2,2.0975488E2,1.4198097E1,3.683838E1,1.1946333E2,1.5901868E2,2.0510742E1,5.8390503E0,5.576846E0,1.7461426E1,3.4607754E0,7.53478E1,2.3179749E1,4.3855286E0,7.802489E1,1.603125E1,1.8198082E1,8.927418E0,2.898941E-1,0E0,0E0,3.9282227E0,3.105133E1,7.2094345E-1,0E0,3.394047E1,1.0424198E1,1.0997467E1,6.078188E0,0E0,3.1272583E0,4.445606E1,1.1672783E1,3.1512726E1,1.3193359E0,3.7549782E0,1.9954939E0,3.4374924E0,7.682805E0,0E0,5.099785E0,0E0,0E0,0E0,0E0,0E0,0E0,0E0,0E0,0E0,0E0,0E0,0E0,0E0,0E0,0E0,0E0,0E0,0E0,0E0,0E0,0E0,0E0,0E0,0E0,0E0,0E0,0E0,0E0,0E0,0E0,0E0,0E0,0E0,0E0],"parents":[2147483647,0,0,1,1,2,2,4,4,5,5,6,6,7,7,8,8,9,9,10,10,11,11,12,12,13,13,14,14,15,15,16,16,17,17,18,18,19,19,20,20,21,21,22,22,25,25,26,26,27,27,29,29,30,30,31,31,32,32,34,34,35,35,36,36,37,37,38,38,39,39,40,40,41,41,42,42,44,44],"right_children":[2,4,6,-1,8,10,12,14,16,18,20,22,24,26,28,30,32,34,36,38,40,42,44,-1,-1,46,48,50,-1,52,54,56,58,-1,60,62,64,66,68,70,72,74,76,-1,78,-1,-1,-1,-1,-1,-1,-1,-1,-1,-1,-1,-1,-1,-1,-1,-1,-1,-1,-1,-1,-1,-1,-1,-1,-1,-1,-1,-1,-1,-1,-1,-1,-1,-1],"split_conditions":[-3.722796E-2,3.0103E-1,1.6720978E0,6.1758954E-2,-7.7776E-2,3.657931E-3,2.659798E-1,2.0148951E-1,2.4624047E-4,5.997592E-5,8.616167E-1,1.6491696E-3,5.528038E-1,-1.2709716E-1,3.4512236E-4,1.6527972E-1,3.461087E-1,7.607106E-2,2.3984551E-2,2.7632233E-2,-2.519261E-1,3.657931E-3,1.5726125E-1,5.7135295E-2,-5.3518284E-2,5.3736496E-1,2.0972766E-4,1.187549E-1,-4.7561333E-2,1.0359602E-4,-1.5222424E-1,1.0297404E-3,3.6221457E-4,-6.983876E-2,3.389638E-5,3.119368E-4,1.5394047E-1,1.6377025E-4,7.634702E-2,5.997592E-5,1.1354549E-1,3.7698826E-1,5.0627075E-2,-6.3113034E-2,1.6131365E-1,-5.787533E-2,4.586685E-2,-3.4478765E-2,-5.618455E-2,6.065036E-2,2.7925238E-2,6.123105E-3,-3.1257063E-2,-5.4947525E-2,4.9209148E-2,-4.2487342E-2,-6.1347883E-2,5.9011597E-2,-5.1314633E-2,6.1803233E-2,4.8263535E-2,5.4974933E-3,-4.1536685E-2,-1.48734255E-2,5.2828517E-2,5.6080192E-2,2.4836648E-2,4.3269813E-2,5.7294767E-2,2.8038803E-2,-6.1185103E-2,-4.776202E-2,5.0421655E-2,-6.361929E-2,-9.59228E-3,7.47182E-2,-2.1483762E-2,2.5159035E-2,-6.241509E-2],"split_indices":[13,3,3,0,13,13,10,8,0,0,6,0,6,13,0,9,9,10,8,13,8,13,9,0,0,9,0,10,0,0,8,0,0,0,0,0,9,0,14,0,14,7,14,0,9,0,0,0,0,0,0,0,0,0,0,0,0,0,0,0,0,0,0,0,0,0,0,0,0,0,0,0,0,0,0,0,0,0,0],"split_type":[0,0,0,0,0,0,0,0,0,0,0,0,0,0,0,0,0,0,0,0,0,0,0,0,0,0,0,0,0,0,0,0,0,0,0,0,0,0,0,0,0,0,0,0,0,0,0,0,0,0,0,0,0,0,0,0,0,0,0,0,0,0,0,0,0,0,0,0,0,0,0,0,0,0,0,0,0,0,0],"sum_hessian":[4.304927E4,2.142044E4,2.162883E4,3.701825E2,2.1050256E4,2.1156455E4,4.723743E2,1.846512E4,2.585138E3,2.7564302E3,1.8400025E4,4.5098004E2,2.1394268E1,1.8426146E4,3.8973194E1,1.2898833E3,1.2952546E3,1.00690845E3,1.7495217E3,1.8318912E4,8.1112854E1,1.2976198E2,3.2121805E2,1.606314E1,5.331126E0,1.5293248E4,3.1328977E3,3.5662148E1,3.3110476E0,1.0576473E3,2.3223604E2,1.2660531E3,2.9201586E1,1.8774904E0,1.00503094E3,1.3654697E3,3.8405197E2,1.5137131E3,1.68052E4,3.478943E1,4.632343E1,8.452114E1,4.524085E1,2.638993E2,5.7318764E1,1.5290286E4,2.9619572E0,9.545312E2,2.1783665E3,2.2067078E1,1.3595069E1,3.7691525E2,6.8073206E2,9.241149E0,2.2299489E2,6.5444775E2,6.116053E2,2.3770906E1,5.4306784E0,7.5347736E2,2.5155354E2,1.121694E3,2.4377579E2,2.6999681E1,3.570523E2,1.04269E3,4.7102313E2,8.313083E1,1.6722068E4,4.9660754E0,2.982335E1,1.4097115E0,4.491372E1,6.9928E1,1.4593135E1,9.745726E0,3.549512E1,7.0911446E0,5.022762E1],"tree_param":{"num_deleted":"0","num_feature":"15","num_nodes":"79","size_leaf_vector":"0"}},{"base_weights":[-3.8940732E-3,-4.8335075E-1,5.0624126E-1,2.679777E-1,-5.196223E-1,5.228205E-1,-4.8389754E-1,-5.2144724E-1,4.4903624E-1,-5.516939E-1,-2.0983869E-1,3.2015133E-1,5.594079E-1,-2.4452756E-1,-5.877767E-1,4.336433E-2,-5.5378085E-1,6.1729413E-1,2.1812154E-1,-5.549475E-1,4.3343037E-1,-2.46297E-2,-4.82961E-1,5.8228457E-1,1.4885859E-1,5.6083345E-1,1.3197118E-1,-6.132663E-2,-3.084814E-3,-6.0066164E-1,4.1071504E-2,-5.7769116E-2,3.671402E-2,6.2050052E-2,1.7602524E-2,-5.892114E-2,2.684792E-1,-5.670198E-1,-4.6411166E-1,-5.410376E-2,5.418063E-1,-1.234222E-1,3.6691615E-1,-5.5404204E-1,-9.6290864E-2,6.072648E-1,4.8390773E-1,3.5357732E-2,5.197954E-1,5.16982E-1,5.6635257E-2,5.488658E-2,-6.0665794E-2,4.318738E-1,-3.0048367E-1,-6.311846E-2,-4.7117653E-1,3.725269E-3,4.181726E-2,-5.698694E-2,-4.4211794E-2,-3.0313402E-2,-5.831439E-2,5.6638695E-2,-3.504192E-2,-6.7833276E-3,-6.2345047E-2,-5.9374917E-2,4.226688E-2,2.2870926E-2,-5.6319416E-2,1.999201E-2,-5.796606E-2,6.0809024E-2,2.813617E-2,2.0647602E-2,5.71189E-2,1.1056262E-2,-3.784684E-2,5.4399002E-2,-5.940917E-2,5.6107234E-2,3.96939E-2,-5.662033E-2,6.1791223E-2,-6.37581E-2,3.721734E-2,5.0199803E-2,-6.040242E-2],"categories":[],"categories_nodes":[],"categories_segments":[],"categories_sizes":[],"default_left":[0,0,0,0,0,0,0,0,0,0,0,0,0,0,0,0,0,0,0,0,0,0,0,0,0,0,0,0,0,0,0,0,0,0,0,0,0,0,0,0,0,0,0,0,0,0,0,0,0,0,0,0,0,0,0,0,0,0,0,0,0,0,0,0,0,0,0,0,0,0,0,0,0,0,0,0,0,0,0,0,0,0,0,0,0,0,0,0,0],"id":14,"left_children":[1,3,5,7,9,11,13,15,17,19,21,23,25,27,29,-1,31,33,35,37,39,41,43,45,47,49,51,-1,53,55,-1,-1,-1,-1,-1,-1,57,59,61,-1,63,65,67,69,71,73,75,77,79,81,-1,-1,-1,83,85,-1,87,-1,-1,-1,-1,-1,-1,-1,-1,-1,-1,-1,-1,-1,-1,-1,-1,-1,-1,-1,-1,-1,-1,-1,-1,-1,-1,-1,-1,-1,-1,-1,-1],"loss_changes":[9.721399E3,5.5850586E2,3.1636963E2,1.3519798E2,1.9407715E2,1.4026611E2,7.7549133E0,5.6946564E0,2.9728851E1,5.7010254E1,9.282788E1,1.3006998E2,9.700684E0,8.70923E0,3.0875015E0,0E0,3.9836464E0,5.1911926E-1,1.3392918E1,1.909668E1,6.50984E0,4.2391766E1,2.0329285E1,2.5205688E0,7.384755E1,3.5771484E0,1.7156288E1,0E0,7.90849E0,5.65773E-1,0E0,0E0,0E0,0E0,0E0,0E0,1.0614382E1,5.2924805E0,3.9611908E1,0E0,1.3712273E0,2.4277054E1,1.2077879E1,4.614975E0,1.6777292E1,7.3516846E-2,5.617035E0,4.1884365E1,1.1399307E1,9.298248E0,0E0,0E0,0E0,4.960282E0,8.469322E0,0E0,6.1994295E0,0E0,0E0,0E0,0E0,0E0,0E0,0E0,0E0,0E0,0E0,0E0,0E0,0E0,0E0,0E0,0E0,0E0,0E0,0E0,0E0,0E0,0E0,0E0,0E0,0E0,0E0,0E0,0E0,0E0,0E0,0E0,0E0],"parents":[2147483647,0,0,1,1,2,2,3,3,4,4,5,5,6,6,7,7,8,8,9,9,10,10,11,11,12,12,13,13,14,14,16,16,17,17,18,18,19,19,20,20,21,21,22,22,23,23,24,24,25,25,26,26,28,28,29,29,36,36,37,37,38,38,40,40,41,41,42,42,43,43,44,44,45,45,46,46,47,47,48,48,49,49,53,53,54,54,56,56],"right_children":[2,4,6,8,10,12,14,16,18,20,22,24,26,28,30,-1,32,34,36,38,40,42,44,46,48,50,52,-1,54,56,-1,-1,-1,-1,-1,-1,58,60,62,-1,64,66,68,70,72,74,76,78,80,82,-1,-1,-1,84,86,-1,88,-1,-1,-1,-1,-1,-1,-1,-1,-1,-1,-1,-1,-1,-1,-1,-1,-1,-1,-1,-1,-1,-1,-1,-1,-1,-1,-1,-1,-1,-1,-1,-1],"split_conditions":[-2.8065033E-2,4.8491136E-5,1.6720978E0,-1.3883851E-1,-5.9324488E-2,1.8910728E-2,1.6491696E-3,3.0103E-1,3.0103E-1,2.0148951E-1,2.866638E-4,5.997592E-5,8.7879753E-1,-2.4837696E-3,3.1239527E-1,4.336433E-2,7.044959E-2,2.80862E-5,-4.151181E-1,-9.7361214E-2,7.8387254E-1,1.6527972E-1,5.5939204E-1,3.389638E-5,2.4022496E-1,4.71162E-2,6.736709E-5,-6.132663E-2,1.487817E-1,5.24243E-1,4.1071504E-2,-5.7769116E-2,3.671402E-2,6.2050052E-2,1.7602524E-2,-5.892114E-2,-7.582548E-2,2.1387264E-1,2.560867E-4,-5.410376E-2,1.30103E0,6.802803E-1,-8.575946E-2,2.5781266E-2,1.3424227E0,4.7712126E-1,-7.363933E-2,3.1533706E-4,8.4388614E-1,1.832177E-4,5.6635257E-2,5.488658E-2,-6.0665794E-2,4.7712126E-1,4.71162E-2,-6.311846E-2,5.263235E-1,3.725269E-3,4.181726E-2,-5.698694E-2,-4.4211794E-2,-3.0313402E-2,-5.831439E-2,5.6638695E-2,-3.504192E-2,-6.7833276E-3,-6.2345047E-2,-5.9374917E-2,4.226688E-2,2.2870926E-2,-5.6319416E-2,1.999201E-2,-5.796606E-2,6.0809024E-2,2.813617E-2,2.0647602E-2,5.71189E-2,1.1056262E-2,-3.784684E-2,5.4399002E-2,-5.940917E-2,5.6107234E-2,3.96939E-2,-5.662033E-2,6.1791223E-2,-6.37581E-2,3.721734E-2,5.0199803E-2,-6.040242E-2],"split_indices":[13,0,3,13,13,13,0,3,3,8,0,0,6,13,8,0,8,0,8,13,5,9,5,0,9,13,0,0,1,5,0,0,0,0,0,0,13,9,0,0,3,6,8,12,3,3,8,0,6,0,0,0,0,4,13,0,5,0,0,0,0,0,0,0,0,0,0,0,0,0,0,0,0,0,0,0,0,0,0,0,0,0,0,0,0,0,0,0,0],"split_type":[0,0,0,0,0,0,0,0,0,0,0,0,0,0,0,0,0,0,0,0,0,0,0,0,0,0,0,0,0,0,0,0,0,0,0,0,0,0,0,0,0,0,0,0,0,0,0,0,0,0,0,0,0,0,0,0,0,0,0,0,0,0,0,0,0,0,0,0,0,0,0,0,0,0,0,0,0,0,0,0,0,0,0,0,0,0,0,0,0],"sum_hessian":[3.974406E4,2.0488113E4,1.9255943E4,9.4325116E2,1.9544863E4,1.893929E4,3.166539E2,1.7562718E2,7.6762396E2,1.7710531E4,1.8343328E3,2.8977131E3,1.6041575E4,9.684557E1,2.1980833E2,5.3445582E0,1.7028262E2,4.4308972E2,3.2453424E2,1.7652664E4,5.7865353E1,1.0937393E3,7.4059344E2,1.1442466E3,1.7534666E3,1.5987942E4,5.3633488E1,3.7711464E1,5.9134106E1,2.1740134E2,2.4069963E0,1.6633665E2,3.9459674E0,4.394901E2,3.5996003E0,1.8426146E1,3.061081E2,1.5577177E4,2.075488E3,5.391865E0,5.2473488E1,8.7392145E2,2.1981781E2,6.2522614E2,1.1536735E2,9.084074E2,2.3583925E2,1.3434785E3,4.0998804E2,1.797869E3,1.4190073E4,3.4447598E1,1.9185886E1,2.3829813E1,3.5304295E1,1.7279466E2,4.460668E1,1.2078473E2,1.8532338E2,1.522623E4,3.5094662E2,8.8379803E2,1.1916901E3,5.1422016E1,1.0514728E0,7.8750854E2,8.6412895E1,1.1528154E1,2.0828966E2,6.9485664E0,6.182775E2,7.1895744E1,4.3471607E1,9.052489E2,3.158498E0,5.7245308E1,1.7859393E2,1.1374939E3,2.0598465E2,4.0177283E2,8.215212E0,1.3122294E3,4.8563962E2,3.4228895E0,2.0406923E1,2.3553015E1,1.1751279E1,5.024078E0,3.9582603E1],"tree_param":{"num_deleted":"0","num_feature":"15","num_nodes":"89","size_leaf_vector":"0"}},{"base_weights":[2.822534E-3,-4.6782795E-1,4.98163E-1,2.618737E-1,-5.054944E-1,5.159066E-1,-5.2243435E-1,-5.093899E-1,4.3550318E-1,-5.402881E-1,-2.0357648E-1,3.3379605E-1,5.51192E-1,-5.530921E-1,2.0657276E-1,-5.4836595E-1,4.6624597E-2,6.0995854E-2,2.2442403E-1,-5.438429E-1,4.1515E-1,-8.5961156E-2,-5.825425E-1,5.7747036E-1,1.7488444E-1,2.3000928E-2,5.525119E-1,-1.2511337E-1,-5.6983316E-1,5.348879E-2,-5.0109334E-2,4.574536E-2,-5.65207E-2,5.737932E-2,4.7806665E-1,-5.6318E-1,-4.666325E-1,5.0234956E-1,-5.0469052E-2,-1.9476712E-1,3.5906306E-1,-4.2818293E-1,-6.012351E-2,6.035287E-2,4.8152593E-1,9.168069E-2,5.7025194E-1,3.278652E-1,-5.7863045E-2,4.9299717E-1,5.5728215E-1,4.3224055E-1,-6.1988182E-2,-5.826408E-1,2.0266239E-2,-1.5372883E-2,3.6074482E-2,9.962914E-3,5.8859598E-2,-5.6377795E-2,-4.6417404E-2,-3.383454E-2,-5.5165846E-2,2.8880222E-2,5.6223787E-2,4.498987E-3,-3.624971E-2,-4.404479E-2,4.8716318E-2,-6.0645975E-2,1.0344192E-1,2.597465E-2,5.5666614E-2,1.8213248E-2,-1.33552775E-2,-4.0283043E-2,5.764069E-2,-5.1592696E-2,4.809751E-2,5.529989E-2,2.8997708E-2,5.3505093E-2,5.5946644E-2,6.281721E-2,-2.9251967E-2,-6.212896E-2,-4.6650153E-2,4.879157E-2,-5.3015288E-2],"categories":[],"categories_nodes":[],"categories_segments":[],"categories_sizes":[],"default_left":[0,0,0,0,0,0,0,0,0,0,0,0,0,0,0,0,0,0,0,0,0,0,0,0,0,0,0,0,0,0,0,0,0,0,0,0,0,0,0,0,0,0,0,0,0,0,0,0,0,0,0,0,0,0,0,0,0,0,0,0,0,0,0,0,0,0,0,0,0,0,0,0,0,0,0,0,0,0,0,0,0,0,0,0,0,0,0,0,0],"id":15,"left_children":[1,3,5,7,9,11,13,15,17,19,21,23,25,27,29,31,-1,-1,33,35,37,39,41,43,45,47,49,51,53,-1,-1,-1,-1,55,57,59,61,63,-1,65,67,69,-1,-1,71,73,75,77,-1,79,81,83,-1,85,87,-1,-1,-1,-1,-1,-1,-1,-1,-1,-1,-1,-1,-1,-1,-1,-1,-1,-1,-1,-1,-1,-1,-1,-1,-1,-1,-1,-1,-1,-1,-1,-1,-1,-1],"loss_changes":[8.666927E3,5.240874E2,3.2827686E2,1.2561576E2,1.9031885E2,1.142207E2,7.043045E0,6.8162003E0,2.8027863E1,5.5430664E1,8.351439E1,1.1189554E2,1.0383301E1,2.062233E0,3.3440423E0,3.0764923E0,0E0,0E0,1.4703604E1,2.3915527E1,5.131689E0,6.940608E1,1.0233307E0,2.562622E0,5.75832E1,7.199141E0,3.9487305E0,3.7124422E0,2.175499E0,0E0,0E0,0E0,0E0,1.3553173E1,5.710272E0,5.0439453E-1,3.5255676E1,5.544796E-1,0E0,4.631376E1,2.9062584E1,1.4035157E1,0E0,0E0,3.9998589E0,2.9536953E1,2.0554428E0,3.6074069E0,0E0,1.3391571E1,3.6914062E-1,1.1015362E0,0E0,9.680557E-1,2.0728555E0,0E0,0E0,0E0,0E0,0E0,0E0,0E0,0E0,0E0,0E0,0E0,0E0,0E0,0E0,0E0,0E0,0E0,0E0,0E0,0E0,0E0,0E0,0E0,0E0,0E0,0E0,0E0,0E0,0E0,0E0,0E0,0E0,0E0,0E0],"parents":[2147483647,0,0,1,1,2,2,3,3,4,4,5,5,6,6,7,7,8,8,9,9,10,10,11,11,12,12,13,13,14,14,15,15,18,18,19,19,20,20,21,21,22,22,23,23,24,24,25,25,26,26,27,27,28,28,33,33,34,34,35,35,36,36,37,37,39,39,40,40,41,41,44,44,45,45,46,46,47,47,49,49,50,50,51,51,53,53,54,54],"right_children":[2,4,6,8,10,12,14,16,18,20,22,24,26,28,30,32,-1,-1,34,36,38,40,42,44,46,48,50,52,54,-1,-1,-1,-1,56,58,60,62,64,-1,66,68,70,-1,-1,72,74,76,78,-1,80,82,84,-1,86,88,-1,-1,-1,-1,-1,-1,-1,-1,-1,-1,-1,-1,-1,-1,-1,-1,-1,-1,-1,-1,-1,-1,-1,-1,-1,-1,-1,-1,-1,-1,-1,-1,-1,-1],"split_conditions":[-2.8065033E-2,4.8491136E-5,1.6720978E0,-1.3883851E-1,-6.1454494E-2,1.8910728E-2,2.659798E-1,7.044959E-2,3.0103E-1,2.0148951E-1,1.3424227E0,5.997592E-5,-3.4725332E-1,1.0178242E-1,1.8243478E-1,3.0103E-1,4.6624597E-2,6.0995854E-2,-3.038612E-2,-1.2269939E-1,3.4512236E-4,5.5939204E-1,1.748188E0,3.389638E-5,8.713296E-2,4.4907364E-1,3.6673266E-2,-2.9899523E-1,6.751896E-2,5.348879E-2,-5.0109334E-2,4.574536E-2,-5.65207E-2,-6.1454494E-2,6.592041E-2,2.7476558E-1,2.5219301E-4,4.9290776E-1,-5.0469052E-2,1.6209336E-4,-1.2657893E-1,1.7403626E0,-6.012351E-2,6.035287E-2,-7.965237E-2,2.6763228E-4,2.060005E-1,3.6673266E-2,-5.7863045E-2,1.9346635E-4,5.6529526E-2,6.0206E-1,-6.1988182E-2,-1.6543925E-2,2.3244804E-1,-1.5372883E-2,3.6074482E-2,9.962914E-3,5.8859598E-2,-5.6377795E-2,-4.6417404E-2,-3.383454E-2,-5.5165846E-2,2.8880222E-2,5.6223787E-2,4.498987E-3,-3.624971E-2,-4.404479E-2,4.8716318E-2,-6.0645975E-2,1.0344192E-1,2.597465E-2,5.5666614E-2,1.8213248E-2,-1.33552775E-2,-4.0283043E-2,5.764069E-2,-5.1592696E-2,4.809751E-2,5.529989E-2,2.8997708E-2,5.3505093E-2,5.5946644E-2,6.281721E-2,-2.9251967E-2,-6.212896E-2,-4.6650153E-2,4.879157E-2,-5.3015288E-2],"split_indices":[13,0,3,13,13,13,10,8,3,8,3,0,8,11,2,3,0,0,8,13,0,5,3,0,8,5,13,8,13,0,0,0,0,13,9,9,0,9,0,0,8,3,0,0,8,0,9,13,0,0,13,4,0,8,5,0,0,0,0,0,0,0,0,0,0,0,0,0,0,0,0,0,0,0,0,0,0,0,0,0,0,0,0,0,0,0,0,0,0],"split_type":[0,0,0,0,0,0,0,0,0,0,0,0,0,0,0,0,0,0,0,0,0,0,0,0,0,0,0,0,0,0,0,0,0,0,0,0,0,0,0,0,0,0,0,0,0,0,0,0,0,0,0,0,0,0,0,0,0,0,0,0,0,0,0,0,0,0,0,0,0,0,0,0,0,0,0,0,0,0,0,0,0,0,0,0,0,0,0,0,0],"sum_hessian":[3.717401E4,1.9062104E4,1.8111906E4,9.353758E2,1.8126729E4,1.7802889E4,3.0901715E2,1.7152528E2,7.6385046E2,1.6252916E4,1.8738115E3,2.8912727E3,1.4911617E4,2.9677774E2,1.2239421E1,1.653573E2,6.1679845E0,4.1717157E2,3.466789E2,1.6193099E4,5.9817554E1,1.4309354E3,4.4287616E2,1.1402242E3,1.7510483E3,3.7216026E1,1.4874401E4,1.1490899E1,2.8528683E2,8.527375E0,3.7120452E0,2.2922351E0,1.6306506E2,2.0976045E2,1.3691846E2,1.2944813E4,3.2482847E3,5.505253E1,4.7650275E0,1.1502644E3,2.8067093E2,5.04206E1,3.9245554E2,8.9252594E2,2.4769835E2,1.4476312E3,3.0341718E2,2.500188E1,1.2214148E1,1.1114982E3,1.3762902E4,5.4631124E0,6.027787E0,2.792388E2,6.0480323E0,1.239786E2,8.578186E1,3.1379755E1,1.055387E2,1.2862441E4,8.237295E1,1.2967415E3,1.9515432E3,1.3332914E1,4.1719612E1,4.737736E2,6.7649084E2,3.842303E1,2.4224791E2,4.5464306E1,4.9562964E0,6.381183E1,1.8388652E2,1.0329849E3,4.1464633E2,1.5020338E0,3.0191513E2,3.4759862E0,2.1525894E1,8.5660754E2,2.5489069E2,1.25326E3,1.2509643E4,4.405421E0,1.0576915E0,2.0625266E2,7.298614E1,3.331265E0,2.7167673E0],"tree_param":{"num_deleted":"0","num_feature":"15","num_nodes":"89","size_leaf_vector":"0"}},{"base_weights":[-2.5306956E-3,-4.6010065E-1,4.8697525E-1,5.20571E-1,-4.8638374E-1,5.0475776E-1,-4.9329573E-1,-3.3177757E-1,5.735499E-1,-5.3957057E-1,-2.416932E-1,3.099919E-1,5.4327786E-1,-5.2348256E-1,2.380686E-1,-5.626747E-2,5.092853E-2,6.0947787E-2,2.9586583E-1,-5.4166085E-1,3.2074898E-1,2.9317138E-4,-4.2705208E-1,5.69287E-1,1.5183064E-1,-2.5727157E-2,5.445789E-1,-3.546916E-1,-5.8893573E-1,5.0359722E-2,-4.32315E-2,-6.1266657E-2,4.168235E-1,-5.567745E-1,-4.5588064E-1,4.1581392E-1,-4.6220116E-2,-6.55532E-2,4.9737084E-1,-4.5891994E-1,3.2885376E-1,5.9366446E-2,4.77981E-1,5.234738E-2,5.186346E-1,3.9871895E-1,-5.5631783E-2,4.738143E-1,5.5027735E-1,-4.2945993E-1,4.2256212E-1,-6.183132E-2,-4.6280465E-1,4.756316E-2,-5.2028865E-2,-5.5741686E-2,-4.5546703E-2,-1.5950063E-2,-5.0071485E-2,5.5412557E-2,1.0652284E-2,1.6088633E-2,-1.8419588E-2,-4.9701516E-2,5.2566558E-2,-3.7502762E-2,-5.8267273E-2,5.1403772E-2,-5.9112288E-2,3.3289045E-3,5.0646305E-2,1.0667722E-2,-3.9585274E-2,5.4251265E-2,-5.6795444E-2,-4.5576643E-2,4.951344E-2,4.9154468E-2,-2.4240393E-2,5.255078E-2,5.5272944E-2,1.042411E-2,-5.6975584E-2,7.9129905E-2,-4.6502724E-2,4.9319364E-2,-5.9869993E-2],"categories":[],"categories_nodes":[],"categories_segments":[],"categories_sizes":[],"default_left":[0,0,0,0,0,0,0,0,0,0,0,0,0,0,0,0,0,0,0,0,0,0,0,0,0,0,0,0,0,0,0,0,0,0,0,0,0,0,0,0,0,0,0,0,0,0,0,0,0,0,0,0,0,0,0,0,0,0,0,0,0,0,0,0,0,0,0,0,0,0,0,0,0,0,0,0,0,0,0,0,0,0,0,0,0,0,0],"id":16,"left_children":[1,3,5,7,9,11,13,15,17,19,21,23,25,27,29,-1,-1,-1,31,33,35,37,39,41,43,45,47,49,51,-1,-1,-1,53,55,57,59,-1,61,63,65,67,-1,69,71,73,75,-1,77,79,81,83,-1,85,-1,-1,-1,-1,-1,-1,-1,-1,-1,-1,-1,-1,-1,-1,-1,-1,-1,-1,-1,-1,-1,-1,-1,-1,-1,-1,-1,-1,-1,-1,-1,-1,-1,-1],"loss_changes":[7.639028E3,4.5460913E2,2.8748242E2,2.0989098E1,2.2330103E2,1.2125537E2,6.617447E0,5.6439376E0,4.149597E0,2.5533691E1,1.375784E2,1.0960498E2,1.0016602E1,2.9148636E0,2.415155E0,0E0,0E0,0E0,5.93293E0,1.7984863E1,2.7830007E0,4.36101E1,4.1989655E1,1.9709778E0,6.0646732E1,7.378504E0,5.175049E0,4.9189205E0,4.631729E-1,0E0,0E0,0E0,2.7929277E0,5.239258E-1,2.7996033E1,1.2913132E0,0E0,3.1637857E1,4.646305E0,1.7088043E1,1.237298E1,0E0,2.7518463E0,3.191925E1,9.509247E0,1.7281802E0,0E0,1.2967865E1,4.6655273E-1,5.6647806E0,2.8742576E0,0E0,5.7750015E0,0E0,0E0,0E0,0E0,0E0,0E0,0E0,0E0,0E0,0E0,0E0,0E0,0E0,0E0,0E0,0E0,0E0,0E0,0E0,0E0,0E0,0E0,0E0,0E0,0E0,0E0,0E0,0E0,0E0,0E0,0E0,0E0,0E0,0E0],"parents":[2147483647,0,0,1,1,2,2,3,3,4,4,5,5,6,6,7,7,8,8,9,9,10,10,11,11,12,12,13,13,14,14,18,18,19,19,20,20,21,21,22,22,23,23,24,24,25,25,26,26,27,27,28,28,32,32,33,33,34,34,35,35,37,37,38,38,39,39,40,40,42,42,43,43,44,44,45,45,47,47,48,48,49,49,50,50,52,52],"right_children":[2,4,6,8,10,12,14,16,18,20,22,24,26,28,30,-1,-1,-1,32,34,36,38,40,42,44,46,48,50,52,-1,-1,-1,54,56,58,60,-1,62,64,66,68,-1,70,72,74,76,-1,78,80,82,84,-1,86,-1,-1,-1,-1,-1,-1,-1,-1,-1,-1,-1,-1,-1,-1,-1,-1,-1,-1,-1,-1,-1,-1,-1,-1,-1,-1,-1,-1,-1,-1,-1,-1,-1,-1],"split_conditions":[-2.8065033E-2,2.80862E-5,1.6720978E0,-1.4584775E-1,-8.331693E-2,1.8910728E-2,2.7301413E-1,5.1741505E-1,3.0103E-1,2.0148951E-1,2.0972766E-4,5.997592E-5,-3.4725332E-1,1.6491696E-3,2.177684E-1,-5.626747E-2,5.092853E-2,6.0947787E-2,1.1395107E-1,-1.24145426E-1,1.30103E0,2.508505E-1,1.0696173E-1,3.389638E-5,2.508505E-1,8.202242E-1,3.6673266E-2,1.255547E-1,5.24243E-1,5.0359722E-2,-4.32315E-2,-6.1266657E-2,1E0,2.7476558E-1,1.16506206E-4,1.187549E-1,-4.6220116E-2,8.680417E-5,-2.130282E-2,1.0297404E-3,1.3424227E0,5.9366446E-2,1.1219128E-1,6.7680407E-1,8.369142E-1,4.71162E-2,-5.5631783E-2,4.0680787E-4,5.6529526E-2,1.1691054E-1,1.487817E-1,-6.183132E-2,5.263235E-1,4.756316E-2,-5.2028865E-2,-5.5741686E-2,-4.5546703E-2,-1.5950063E-2,-5.0071485E-2,5.5412557E-2,1.0652284E-2,1.6088633E-2,-1.8419588E-2,-4.9701516E-2,5.2566558E-2,-3.7502762E-2,-5.8267273E-2,5.1403772E-2,-5.9112288E-2,3.3289045E-3,5.0646305E-2,1.0667722E-2,-3.9585274E-2,5.4251265E-2,-5.6795444E-2,-4.5576643E-2,4.951344E-2,4.9154468E-2,-2.4240393E-2,5.255078E-2,5.5272944E-2,1.042411E-2,-5.6975584E-2,7.9129905E-2,-4.6502724E-2,4.9319364E-2,-5.9869993E-2],"split_indices":[13,0,3,13,13,13,10,5,3,8,0,0,8,0,2,0,0,0,1,13,3,9,8,0,9,6,13,12,5,0,0,0,4,9,0,10,0,0,8,0,3,0,10,6,6,13,0,0,13,11,1,0,5,0,0,0,0,0,0,0,0,0,0,0,0,0,0,0,0,0,0,0,0,0,0,0,0,0,0,0,0,0,0,0,0,0,0],"split_type":[0,0,0,0,0,0,0,0,0,0,0,0,0,0,0,0,0,0,0,0,0,0,0,0,0,0,0,0,0,0,0,0,0,0,0,0,0,0,0,0,0,0,0,0,0,0,0,0,0,0,0,0,0,0,0,0,0,0,0,0,0,0,0,0,0,0,0,0,0,0,0,0,0,0,0,0,0,0,0,0,0,0,0,0,0,0,0],"sum_hessian":[3.410336E4,1.7626703E4,1.6476654E4,4.595935E2,1.716711E4,1.6183563E4,2.9309113E2,2.658704E1,4.3300647E2,1.4100885E4,3.0662249E3,2.673719E3,1.3509845E4,2.8174637E2,1.1344762E1,2.1119967E1,5.4670725E0,3.8234253E2,5.0663948E1,1.4067077E4,3.3808186E1,1.3303928E3,1.7358322E3,1.01200433E3,1.6617148E3,3.0778255E1,1.3479066E4,8.051995E1,2.0122641E2,8.304336E0,3.0404267E0,5.4750247E0,4.5188923E1,1.1955196E4,2.111881E3,3.0565832E1,3.2423546E0,1.1755406E3,1.5485219E2,1.6659894E3,6.9842766E1,7.9440656E2,2.1759775E2,1.3080837E3,3.5363107E2,1.7237585E1,1.3540671E1,1.0108036E3,1.2468263E4,7.3862206E1,6.6577497E0,1.600473E2,4.1179104E1,4.2983932E1,2.2049906E0,1.18754E4,7.97954E1,2.780917E2,1.8337893E3,2.0573833E1,9.991998E0,4.0404007E2,7.7150055E2,3.8260071E0,1.5102618E2,9.9530206E2,6.7068726E2,5.8507015E1,1.1335747E1,1.3228554E1,2.0436919E2,1.1673429E3,1.4074075E2,3.46517E2,7.114074E0,1.3698789E0,1.5867706E1,9.866912E2,2.4112356E1,1.142506E3,1.1325757E4,1.5428289E1,5.8433914E1,4.780317E0,1.8774326E0,4.797856E0,3.638125E1],"tree_param":{"num_deleted":"0","num_feature":"15","num_nodes":"87","size_leaf_vector":"0"}},{"base_weights":[-3.132101E-4,-4.731237E-1,4.618108E-1,2.60832E-1,-5.026517E-1,4.8334542E-1,-5.032683E-1,-5.018924E-1,4.2052805E-1,-5.28718E-1,-2.1443252E-1,1.4024305E-1,5.160989E-1,-5.4361856E-1,2.7661595E-1,-5.5720925E-2,3.6667593E-2,6.0442068E-2,2.1378742E-1,-5.336632E-1,1.5902777E-1,-4.628686E-2,-4.8298687E-1,4.2490256E-1,-1.2216908E-1,5.2155703E-1,-1.472804E-1,-5.964919E-1,-3.075079E-1,5.2992553E-2,-4.793992E-2,-1.2939215E-1,3.634669E-1,-5.520108E-1,-4.624943E-1,5.369561E-1,-5.440092E-2,-1.4381713E-1,4.1540286E-1,4.2062953E-1,-4.9933338E-1,5.9307915E-1,2.842618E-1,-1.6333482E-1,5.7817407E-2,4.2997414E-1,5.440718E-1,-4.4278404E-1,5.040456E-1,-6.1014075E-2,9.693763E-2,2.0665881E-1,-5.9454758E-2,-6.83519E-2,1.2495099E-2,2.6763095E-2,8.217173E-2,-5.527196E-2,-4.0282033E-2,-3.264424E-2,-5.6083795E-2,6.944928E-2,2.8871346E-2,-8.962843E-3,-5.8526974E-2,-3.62301E-2,5.750351E-2,-4.3228302E-2,9.3944386E-2,-5.7022035E-2,-3.229784E-2,2.3688896E-2,5.9843123E-2,3.2996617E-2,-2.7674625E-2,-3.7850307E-3,-3.7050124E-2,5.3418E-2,2.733321E-2,5.462296E-2,5.12275E-2,1.2532318E-2,-5.845232E-2,5.395124E-2,-3.369936E-2,4.7314633E-2,-4.6417233E-2,-5.4571714E-2,6.3563906E-2],"categories":[],"categories_nodes":[],"categories_segments":[],"categories_sizes":[],"default_left":[0,0,0,0,0,0,0,0,0,0,0,0,0,0,0,0,0,0,0,0,0,0,0,0,0,0,0,0,0,0,0,0,0,0,0,0,0,0,0,0,0,0,0,0,0,0,0,0,0,0,0,0,0,0,0,0,0,0,0,0,0,0,0,0,0,0,0,0,0,0,0,0,0,0,0,0,0,0,0,0,0,0,0,0,0,0,0,0,0],"id":17,"left_children":[1,3,5,7,9,11,13,15,17,19,21,23,25,27,29,-1,-1,-1,31,33,35,37,39,41,43,45,47,49,51,-1,-1,53,55,57,59,61,-1,63,65,67,69,71,73,75,-1,77,79,81,83,-1,85,87,-1,-1,-1,-1,-1,-1,-1,-1,-1,-1,-1,-1,-1,-1,-1,-1,-1,-1,-1,-1,-1,-1,-1,-1,-1,-1,-1,-1,-1,-1,-1,-1,-1,-1,-1,-1,-1],"loss_changes":[6.948014E3,3.4077124E2,3.3445435E2,7.433496E1,1.1340674E2,1.7670728E2,1.1211342E1,5.288231E0,1.902192E1,4.721118E1,5.6644295E1,1.0255369E2,5.2070557E1,3.9929428E0,3.6923282E0,0E0,0E0,0E0,1.2307519E1,1.7709229E1,2.6780357E1,3.4859028E1,7.345566E0,1.54049E1,2.0701792E1,2.913379E1,2.292759E1,2.6360168E0,9.460995E0,0E0,0E0,1.0405625E1,7.09046E0,9.333496E-1,3.7628113E1,2.354828E0,0E0,1.5228353E1,1.6973202E1,4.444578E0,5.753319E0,4.2811584E-1,9.33445E0,1.7556343E1,0E0,4.5807373E1,5.041504E-1,6.6503696E0,1.293951E0,0E0,1.5112059E0,7.9025483E0,0E0,0E0,0E0,0E0,0E0,0E0,0E0,0E0,0E0,0E0,0E0,0E0,0E0,0E0,0E0,0E0,0E0,0E0,0E0,0E0,0E0,0E0,0E0,0E0,0E0,0E0,0E0,0E0,0E0,0E0,0E0,0E0,0E0,0E0,0E0,0E0,0E0],"parents":[2147483647,0,0,1,1,2,2,3,3,4,4,5,5,6,6,7,7,8,8,9,9,10,10,11,11,12,12,13,13,14,14,18,18,19,19,20,20,21,21,22,22,23,23,24,24,25,25,26,26,27,27,28,28,31,31,32,32,33,33,34,34,35,35,37,37,38,38,39,39,40,40,41,41,42,42,43,43,45,45,46,46,47,47,48,48,50,50,51,51],"right_children":[2,4,6,8,10,12,14,16,18,20,22,24,26,28,30,-1,-1,-1,32,34,36,38,40,42,44,46,48,50,52,-1,-1,54,56,58,60,62,-1,64,66,68,70,72,74,76,-1,78,80,82,84,-1,86,88,-1,-1,-1,-1,-1,-1,-1,-1,-1,-1,-1,-1,-1,-1,-1,-1,-1,-1,-1,-1,-1,-1,-1,-1,-1,-1,-1,-1,-1,-1,-1,-1,-1,-1,-1,-1,-1],"split_conditions":[-3.722796E-2,4.4959834E-5,1.5910646E0,-1.3883851E-1,-6.1454494E-2,5.589081E-2,2.659798E-1,1.8211645E-1,3.0103E-1,3.2408202E-1,2.9176392E-4,1.19675526E-4,8.571007E-1,1.20412E0,5.528038E-1,-5.5720925E-2,3.6667593E-2,6.0442068E-2,-1.5222424E-1,-1.2269939E-1,3.6221457E-4,5.5939204E-1,-1.7692564E-2,3.389638E-5,3.0516404E-1,3.6673266E-2,-1.9629368E-1,6.751896E-2,4.043493E-1,5.2992553E-2,-4.793992E-2,6.0206E-1,1.39794E0,2.7476558E-1,2.5219301E-4,1.187549E-1,-5.440092E-2,6.802803E-1,-3.038612E-2,1.7828846E-1,-4.254186E-2,8.491127E-2,5.697718E-1,2.5050488E-4,5.7817407E-2,1.4484132E-4,3.179407E-4,9.9676385E-5,2.3403636E-4,-6.1014075E-2,1.951451E-1,-2.4837696E-3,-5.9454758E-2,-6.83519E-2,1.2495099E-2,2.6763095E-2,8.217173E-2,-5.527196E-2,-4.0282033E-2,-3.264424E-2,-5.6083795E-2,6.944928E-2,2.8871346E-2,-8.962843E-3,-5.8526974E-2,-3.62301E-2,5.750351E-2,-4.3228302E-2,9.3944386E-2,-5.7022035E-2,-3.229784E-2,2.3688896E-2,5.9843123E-2,3.2996617E-2,-2.7674625E-2,-3.7850307E-3,-3.7050124E-2,5.3418E-2,2.733321E-2,5.462296E-2,5.12275E-2,1.2532318E-2,-5.845232E-2,5.395124E-2,-3.369936E-2,4.7314633E-2,-4.6417233E-2,-5.4571714E-2,6.3563906E-2],"split_indices":[13,0,3,13,13,14,10,9,3,9,0,0,6,4,6,0,0,0,8,13,0,5,14,0,9,13,8,13,6,0,0,4,4,9,0,10,0,6,8,2,8,1,6,0,0,0,0,0,0,0,2,13,0,0,0,0,0,0,0,0,0,0,0,0,0,0,0,0,0,0,0,0,0,0,0,0,0,0,0,0,0,0,0,0,0,0,0,0,0],"split_type":[0,0,0,0,0,0,0,0,0,0,0,0,0,0,0,0,0,0,0,0,0,0,0,0,0,0,0,0,0,0,0,0,0,0,0,0,0,0,0,0,0,0,0,0,0,0,0,0,0,0,0,0,0,0,0,0,0,0,0,0,0,0,0,0,0,0,0,0,0,0,0,0,0,0,0,0,0,0,0,0,0,0,0,0,0,0,0,0,0],"sum_hessian":[3.1797113E4,1.5716821E4,1.6080293E4,6.075503E2,1.5109271E4,1.57298E4,3.504929E2,1.04812485E2,5.027378E2,1.385537E4,1.2539017E3,1.3712136E3,1.4358586E4,3.3353894E2,1.6953928E1,9.887394E1,5.93855E0,2.6505334E2,2.3768445E2,1.3756677E4,9.869323E1,7.718241E2,4.8207764E2,6.574287E2,7.137849E2,1.4241622E4,1.1696382E2,2.7126663E2,6.227233E1,1.2923012E1,4.0309153E0,7.222505E1,1.654594E2,1.0931694E4,2.8249817E3,6.434164E1,3.4351597E1,6.377832E2,1.3404088E2,8.126424E0,4.7395123E2,2.979393E2,3.5948944E2,6.748825E2,3.890241E1,2.8142441E3,1.1427378E4,8.06799E1,3.6283924E1,2.661481E2,5.1185145E0,2.240997E1,3.9862362E1,2.2191015E1,5.003404E1,1.3815123E2,2.730816E1,1.0877312E4,5.438334E1,1.187069E3,1.6379128E3,3.826238E1,2.6079254E1,5.6912555E2,6.8657646E1,2.2611504E1,1.11429375E2,3.136657E0,4.989767E0,3.3647116E2,1.3748006E2,5.080551E0,2.9285876E2,3.327895E2,2.6699951E1,4.2103598E2,2.5384654E2,1.6885371E3,1.1257069E3,1.068602E4,7.413586E2,1.6132952E1,6.454695E1,3.5159748E1,1.1241758E0,3.157958E0,1.9605565E0,8.038809E0,1.437116E1],"tree_param":{"num_deleted":"0","num_feature":"15","num_nodes":"89","size_leaf_vector":"0"}},{"base_weights":[-2.571805E-3,-4.1091186E-1,4.3433768E-1,2.4611996E-1,-4.6621853E-1,4.6942356E-1,-4.3486318E-1,4.209388E-1,-3.0107543E-1,-2.547139E-1,-5.182947E-1,4.9017873E-1,-4.778395E-1,-5.156597E-1,4.8077795E-1,5.965182E-2,2.3649555E-1,5.928071E-1,-4.3261376E-1,-9.370342E-2,-4.9095514E-1,-5.230499E-1,2.971373E-1,4.9986437E-1,-2.1222533E-1,-1.6146736E-1,-5.5232084E-1,2.1344046E-1,-5.410237E-1,5.3862978E-2,-4.232149E-2,1.0825364E-1,5.681363E-1,6.144032E-2,1.3228729E-2,-5.0607157E-1,2.9094022E-2,-4.364394E-1,-1.8026188E-2,-5.567984E-1,-1.0280428E-1,-5.305138E-1,-2.7177823E-1,5.0006247E-1,-5.1450282E-2,3.5743102E-1,5.302459E-1,-4.7112885E-1,4.0950587E-1,-3.6695516E-1,3.3319977E-1,-5.670296E-2,1.2877169E-1,-4.5971707E-2,4.320486E-1,-5.442787E-1,2.1321224E-2,3.2625254E-2,-1.1940375E-2,-3.2406922E-2,5.8021273E-2,-5.323546E-2,5.544672E-2,-5.3799924E-2,2.3562454E-2,-4.8140734E-2,7.549203E-2,-4.929674E-3,5.135824E-2,-5.673197E-2,2.7450642E-2,5.83086E-3,-5.665502E-2,-5.3252798E-2,-5.2151787E-3,4.363259E-3,-4.9478326E-2,-3.9994404E-2,5.3074267E-2,4.5852195E-2,2.808313E-3,4.6554856E-2,5.371064E-2,5.2223034E-2,-5.1852435E-2,4.6250887E-2,-4.599716E-2,-3.958323E-3,-6.1585683E-2,5.581971E-2,-2.011436E-2,4.6833005E-2,-3.7013814E-2,5.3749975E-2,1.0074341E-4,-2.9664187E-2,-5.5383623E-2],"categories":[],"categories_nodes":[],"categories_segments":[],"categories_sizes":[],"default_left":[0,0,0,0,0,0,0,0,0,0,0,0,0,0,0,0,0,0,0,0,0,0,0,0,0,0,0,0,0,0,0,0,0,0,0,0,0,0,0,0,0,0,0,0,0,0,0,0,0,0,0,0,0,0,0,0,0,0,0,0,0,0,0,0,0,0,0,0,0,0,0,0,0,0,0,0,0,0,0,0,0,0,0,0,0,0,0,0,0,0,0,0,0,0,0,0,0],"id":18,"left_children":[1,3,5,7,9,11,13,15,17,19,21,23,25,27,29,-1,31,33,35,37,39,41,43,45,47,49,51,53,55,-1,-1,57,59,-1,-1,61,63,65,67,69,71,73,75,77,-1,79,81,83,85,87,89,-1,91,-1,93,95,-1,-1,-1,-1,-1,-1,-1,-1,-1,-1,-1,-1,-1,-1,-1,-1,-1,-1,-1,-1,-1,-1,-1,-1,-1,-1,-1,-1,-1,-1,-1,-1,-1,-1,-1,-1,-1,-1,-1,-1,-1],"loss_changes":[5.2281777E3,5.50551E2,4.3194873E2,1.1269253E2,1.5375879E2,2.6778174E2,4.092299E1,2.875322E1,3.3825485E1,1.0502876E2,4.3624023E1,9.070459E1,6.7980576E0,9.467499E0,2.5865192E0,0E0,1.8515162E1,2.8715134E-1,8.475243E0,4.2633392E1,2.8551392E1,2.0759766E1,1.1067079E1,5.665503E1,2.9462727E1,5.927415E0,2.4389725E0,2.806005E0,1.3165283E0,0E0,0E0,1.5732705E1,1.4978676E0,0E0,0E0,6.2956085E0,4.247853E0,1.6290932E1,2.2429193E1,8.524506E0,1.2254563E1,1.0400391E1,2.2781832E1,1.6760597E0,0E0,7.697827E1,4.5546875E0,6.336748E0,2.7010498E0,3.3021755E0,2.1904216E0,0E0,1.1571727E0,0E0,6.308267E-1,9.887543E-1,0E0,0E0,0E0,0E0,0E0,0E0,0E0,0E0,0E0,0E0,0E0,0E0,0E0,0E0,0E0,0E0,0E0,0E0,0E0,0E0,0E0,0E0,0E0,0E0,0E0,0E0,0E0,0E0,0E0,0E0,0E0,0E0,0E0,0E0,0E0,0E0,0E0,0E0,0E0,0E0,0E0],"parents":[2147483647,0,0,1,1,2,2,3,3,4,4,5,5,6,6,7,7,8,8,9,9,10,10,11,11,12,12,13,13,14,14,16,16,17,17,18,18,19,19,20,20,21,21,22,22,23,23,24,24,25,25,26,26,27,27,28,28,31,31,32,32,35,35,36,36,37,37,38,38,39,39,40,40,41,41,42,42,43,43,45,45,46,46,47,47,48,48,49,49,50,50,52,52,54,54,55,55],"right_children":[2,4,6,8,10,12,14,16,18,20,22,24,26,28,30,-1,32,34,36,38,40,42,44,46,48,50,52,54,56,-1,-1,58,60,-1,-1,62,64,66,68,70,72,74,76,78,-1,80,82,84,86,88,90,-1,92,-1,94,96,-1,-1,-1,-1,-1,-1,-1,-1,-1,-1,-1,-1,-1,-1,-1,-1,-1,-1,-1,-1,-1,-1,-1,-1,-1,-1,-1,-1,-1,-1,-1,-1,-1,-1,-1,-1,-1,-1,-1,-1,-1],"split_conditions":[6.4378016E-2,5.997592E-5,8.369142E-1,2.1181896E-1,1.7598075E-1,1.6720978E0,-5.3397596E-2,3.0103E-1,3.0103E-1,2.7912256E-4,3.2408202E-1,3.039984E-1,1.633211E-1,5.997592E-5,2.560867E-4,5.965182E-2,1.1211133E-1,2.5097743E-1,0E0,-1.3794394E-2,4.563803E-2,1.5918276E-1,1.30103E0,1.1844016E-1,7.1323586E-1,1.9705424E-1,2.7301413E-1,2.1813527E-1,2.4759205E-1,5.3862978E-2,-4.232149E-2,1.4933975E-1,-3.2708738E-2,6.144032E-2,1.3228729E-2,1.794248E-1,1.0910907E-1,5.443542E-1,2.508505E-1,3.0516404E-1,1.4211765E-3,2.5375074E-1,2.1517812E-1,6.572106E-1,-5.1450282E-2,2.210877E-4,-7.965237E-2,2.80862E-5,3.4228098E-1,1.6493323E-1,3.3470185E-3,-5.670296E-2,1.7265742E-1,-4.5971707E-2,1.743332E-1,9.9676385E-5,2.1321224E-2,3.2625254E-2,-1.1940375E-2,-3.2406922E-2,5.8021273E-2,-5.323546E-2,5.544672E-2,-5.3799924E-2,2.3562454E-2,-4.8140734E-2,7.549203E-2,-4.929674E-3,5.135824E-2,-5.673197E-2,2.7450642E-2,5.83086E-3,-5.665502E-2,